tree
version=v4
num_class=1
num_tree_per_iteration=1
label_index=0
max_feature_idx=46
objective=quantile
feature_names=Column_0 Column_1 Column_2 Column_3 Column_4 Column_5 Column_6 Column_7 Column_8 Column_9 Column_10 Column_11 Column_12 Column_13 Column_14 Column_15 Column_16 Column_17 Column_18 Column_19 Column_20 Column_21 Column_22 Column_23 Column_24 Column_25 Column_26 Column_27 Column_28 Column_29 Column_30 Column_31 Column_32 Column_33 Column_34 Column_35 Column_36 Column_37 Column_38 Column_39 Column_40 Column_41 Column_42 Column_43 Column_44 Column_45 Column_46
feature_infos=[-0.28488168120384216:158.85971069335938] [-0.28412732481956482:76.793220520019531] [-0.28346124291419983:125.56322479248047] [-0.28169351816177368:48.230735778808594] [-0.32462787628173828:119.44225311279297] [-0.33701848983764648:104.2943115234375] [-0.48244228959083557:63.33642578125] [-1.7310736179351807:1.7310736179351807] [-1.5784569978713989:1.6259136199951172] [-1.3792939186096191:1.3780460357666016] [-1.2747402191162109:1.4138048887252808] [-1.4986255168914795:1.5003179311752319] [-1.642849326133728:1.6247442960739136] [-0.96994549036026001:11.584277153015137] [-1.8420482873916626:0.54287391901016235] [0:4.0749363899230957] [0:0.85582363605499268] [0:2.3131799697875977] [0:3.8890213966369629] [0:5.2428913116455078] [0:1.0766714811325073] [0:2.2958774566650391] [0:5.2430868148803711] [0.0043682903051376343:3.1124577522277832] [0:2.6242930889129639] [0:3.2207906246185303] [0:3.152289867401123] [0:0.31106272339820862] [0:1.7575820684432983] [0.064094722270965576:3.2464802265167236] [0:9.7430534362792969] [0:4.0018377304077148] [0.05183839425444603:3.873903751373291] [0:0.26873821020126343] [0:4.9261202812194824] [0:1.9446073770523071] [0:1.2758404016494751] [0.019880367442965508:3.1054656505584717] [0:6.5135207176208496] [0:2.9431383609771729] [0:2.3982105255126953] [0:0.84420245885848999] [0.032616760581731796:2.6297917366027832] [0:0.36411142349243164] [0:0.63786619901657104] [0:0.63234931230545044] [0:1.9666225910186768]
tree_sizes=6175 6500 6508 6517 6514 6525 6541 6563 6560 6553 6535 6522 6521 6526 6521 6530 6571 6539 6553 6535 6567 6551 6550 6545 6609 6587 6616 6585 6549 6573 6582 6580 6588 6611 6629 6634 6586 6651 6614 6646 6645 6650 6664 6651 6704 6680 6650 6634 6728 6722 6692 6749 6762 6712 6708 6762 6726 6783 6732 6747 6722 6767 6781 6777 6811 6833 6791 6837 6789 6772 6825 6803 6845 6768 6812 6818 6834 6883 6920 6900 6892 6961 6978 6967 6964 6933 6900 6952 6970 6981 6975 6977 6982 6989 6996 7008 7008 6970 7012 7003 7012 7006 6991 6984 6987 6983 7017 7023 7023 7007 7035 7029 7062 7024 7022 6993 7021 7004 7008 6983 6989 6991 6984 6995 7000 7000 6998 7014 6979 7014 7065 7028 7015 7003 6983 7017 6979 7031 7026 7023 6991 6991 6970 6983 6966 6933 6976 6918 6992 7002 6992 6973 6980 6981 6993 7007 6967 7002 6991 6991 6997 6937 7008 6910 7010 6905 6909 6877 6969 6900 6913 6866 6940 6964 6887 6960 6904 6918 6975 6905 6864 6914 6917 6900 6978 6901 6865 6883 6928 6914 6911 6963 6926 6977 6964 6888 6918 6863 6884 6856

Tree=0
num_leaves=64
num_cat=0
split_feature=4 5 5 5 4 5 4 4 0 10 10 10 10 4 0 13 5 4 10 0 5 5 0 5 4 13 5 4 9 5 9 0 4 4 5 6 5 13 9 9 5 13 9 5 10 5 4 0 13 0 13 13 5 5 13 4 5 4 10 4 9 4 5
split_gain=864359 88775.9 79292.9 11460 9711.71 9683.59 8981.19 3878.46 3855.75 3035.25 2787.23 2652.32 2489.67 2313.97 2297.1 1940.54 1889.46 1561.66 1532.29 1487.59 1243.31 1059.02 937.403 928.348 866.081 832.267 813.143 807.911 803.695 717.171 632.86 627.563 620.477 586.793 585.552 574.778 563.643 527.884 519.224 467.022 464.619 446.332 430.808 413.678 407.59 389.916 387.274 373.796 364.986 355.573 353.884 328.601 319.772 311.716 303.355 298.165 287.236 283.54 282.649 266.096 256.652 245.62 225.586
threshold=1.079709053039551 0.46056032180786138 2.0887211561203007 0.84559834003448497 2.9242111444473271 1.417654871940613 0.1574579328298569 1.9181191325187685 0.6135152429342271 1.0000000180025095e-35 1.0000000180025095e-35 1.0000000180025095e-35 1.0000000180025095e-35 0.57666298747062694 1.0000000180025095e-35 -0.7673199176788329 0.086523357778787627 0.53474250435829174 1.0000000180025095e-35 2.4103091955184941 3.7938897609710698 0.65857982635498058 0.87020006775856029 1.1206254959106448 1.7923575639724734 -0.76161217689514149 1.1536287665367129 2.0019601583480839 -0.30740686779608944 0.28454294800758367 -0.30740686779608944 1.0000000180025095e-35 2.8822906017303471 1.3731526136398318 0.66958093643188488 1.0000000180025095e-35 1.1096243858337405 -0.76161217689514149 -0.30740686779608944 -0.30740686779608944 0.031517930328845985 -0.74876970052719105 -0.30740686779608944 3.958905935287476 1.0000000180025095e-35 1.1096243858337405 1.9600396752357485 -0.15653926879167554 -0.64174914360046376 1.3835698366165163 -0.76161217689514149 -0.52045917510986317 -0.08949402347207068 -0.22150707244873044 -0.74876970052719105 1.7504370808601382 1.4946624636650088 2.505006074905396 1.0000000180025095e-35 0.82818600535392772 -0.30740686779608944 1.7504370808601382 2.4957613945007329
decision_type=2 2 2 2 2 2 2 2 2 2 2 2 2 2 2 2 2 2 2 2 2 2 2 2 2 2 2 2 2 2 2 2 2 2 2 2 2 2 2 2 2 2 2 2 2 2 2 2 2 2 2 2 2 2 2 2 2 2 2 2 2 2 2
left_child=1 6 5 12 14 7 16 10 47 24 33 23 34 29 -4 43 19 35 27 49 58 42 -9 -5 -7 -11 38 -16 -12 51 61 -25 50 45 -3 -13 -30 -26 -19 -23 -15 -20 -14 -10 -31 -2 -43 -6 -18 52 -24 -8 -1 -51 -29 -32 -33 -39 -17 -42 -28 -27 -56
right_child=2 3 4 11 8 9 13 22 15 25 28 17 21 40 18 20 48 26 41 -21 -22 39 32 31 37 30 60 54 36 44 55 56 -34 -35 -36 -37 -38 57 -40 -41 59 46 -44 -45 -46 -47 -48 -49 -50 53 -52 -53 -54 -55 62 -57 -58 -59 -60 -61 -62 -63 -64
leaf_value=1.758801121711731 1.8099435663223267 1.800389952659607 1.832071533203125 1.8070842599868775 1.855367398262024 1.8171784281730652 1.7963840126991273 1.826339874267578 1.8446671509742736 1.8333483219146729 1.8149551844596863 1.8099435663223267 1.800389952659607 1.8125539064407348 1.8247178602218628 1.8333483219146729 1.7963840126991273 1.8099435663223267 1.841978783607483 1.861060168240499 1.8632383298873902 1.8039234447479249 1.832071533203125 1.8171784281730652 1.8307379817962646 1.8171784281730652 1.8171784281730652 1.8400426292419434 1.8171784281730652 1.7963840126991273 1.8211843681335449 1.8125539064407348 1.8515323972702027 1.8149551844596863 1.8039234447479249 1.8171784281730652 1.8192482137680053 1.8192482137680053 1.8125539064407348 1.8099435663223267 1.800389952659607 1.8278786754608154 1.8039234447479249 1.8627731990814209 1.800389952659607 1.8125539064407348 1.832071533203125 1.8471342897415162 1.7917594909667969 1.8211843681335449 1.8278786754608154 1.7917594909667969 1.7795955371856689 1.7917594909667969 1.8230031061172485 1.8293423819541932 1.8211843681335449 1.8307379817962646 1.8400426292419434 1.8070842599868775 1.8211843681335449 1.8247178602218628 1.8278786754608154
leaf_weight=37848510 152917 694949 36687 305810 16383 197023 345301 20344 24849 30790 98257 20340 166651 43570 79595 112486 255682 63834 18616 3232 401954 98264 7465 76617 20666 41518 38639 15533 112295 618895 83591 108662 18152 150838 364112 75430 84729 99907 128048 196750 276051 46770 334178 33058 466163 88922 117900 16284 1768492 5976 44615 1940200 5049161 11830 58155 69381 47184 27817 83144 59984 77220 34679 93225
leaf_count=37848510 152917 694949 36687 305810 16383 197023 345301 20344 24849 30790 98257 20340 166651 43570 79595 112486 255682 63834 18616 3232 401954 98264 7465 76617 20666 41518 38639 15533 112295 618895 83591 108662 18152 150838 364112 75430 84729 99907 128048 196750 276051 46770 334178 33058 466163 88922 117900 16284 1768492 5976 44615 1940200 5049161 11830 58155 69381 47184 27817 83144 59984 77220 34679 93225
internal_value=1.79164 1.7908 1.80873 1.79599 1.81453 1.80388 1.7905 1.80167 1.8168 1.80673 1.8009 1.79869 1.79463 1.79191 1.81119 1.8173 1.79038 1.80053 1.81181 1.79034 1.81781 1.79589 1.80751 1.79731 1.80489 1.80918 1.80157 1.81026 1.80311 1.79166 1.8098 1.79874 1.80915 1.79925 1.79367 1.79718 1.80421 1.80662 1.80037 1.79732 1.79413 1.81388 1.79505 1.81206 1.79229 1.79833 1.81438 1.80674 1.79128 1.79034 1.80749 1.79136 1.79033 1.79457 1.81145 1.81091 1.79983 1.80734 1.81585 1.79375 1.80355 1.80757 1.81186
internal_weight=5.40283e+07 5.14897e+07 2.53854e+06 2.79669e+06 1.15464e+06 1.38391e+06 4.8693e+07 778534 688158 605372 687958 941784 1.8549e+06 3.75016e+06 466481 655491 4.49429e+07 403511 429794 4.29187e+07 597584 795843 90576 538273 345413 259959 307741 246508 295281 3.37056e+06 229169 232463 70232 392677 1.05906e+06 95770 197024 148390 191882 295014 379605 183286 500829 57907 1.08506e+06 241839 164670 32667 2.02417e+06 4.29155e+07 52080 2.2855e+06 4.28977e+07 17806 166913 152972 155846 127724 195630 336035 115859 76197 151380
internal_count=54028280 51489735 2538545 2796688 1154639 1383906 48693047 778534 688158 605372 687958 941784 1854904 3750164 466481 655491 44942883 403511 429794 42918709 597584 795843 90576 538273 345413 259959 307741 246508 295281 3370559 229169 232463 70232 392677 1059061 95770 197024 148390 191882 295014 379605 183286 500829 57907 1085058 241839 164670 32667 2024174 42915477 52080 2285501 42897671 17806 166913 152972 155846 127724 195630 336035 115859 76197 151380
is_linear=0
shrinkage=1


Tree=1
num_leaves=64
num_cat=0
split_feature=4 5 5 5 4 5 5 4 0 10 10 5 10 10 0 0 13 4 10 4 5 4 5 0 4 5 13 4 9 5 10 6 9 0 0 4 4 13 4 6 5 5 13 9 9 13 5 9 5 4 0 4 13 13 4 6 10 5 4 10 9 13 13
split_gain=858770 86852.5 79292.9 10453.5 9711.71 9683.59 9374.71 3878.46 3855.75 3035.25 2787.23 2576.13 2559.15 2475.77 2297.1 2258.78 1940.54 1552.3 1532.29 1458.73 1243.31 1000.96 960.575 937.403 866.081 862.637 832.267 807.911 803.695 764.39 730.564 689.271 632.86 628.966 627.563 627.295 620.477 586.951 586.793 569.274 563.643 534.172 527.884 497.295 488.561 446.332 413.678 397.021 389.916 387.274 373.796 354.582 353.884 303.355 298.165 289.778 288.282 287.236 283.54 282.649 256.652 251.598 249.308
threshold=1.079709053039551 0.4825624823570252 2.0887211561203007 0.85659942030906688 2.9242111444473271 1.417654871940613 1.0000000180025095e-35 1.9181191325187685 0.6135152429342271 1.0000000180025095e-35 1.0000000180025095e-35 0.28454294800758367 1.0000000180025095e-35 1.0000000180025095e-35 1.0000000180025095e-35 1.6402546763420107 -0.7673199176788329 0.53474250435829174 1.0000000180025095e-35 0.3670604825019837 3.7938897609710698 0.61858350038528453 0.65857982635498058 0.87020006775856029 1.7923575639724734 1.1206254959106448 -0.76161217689514149 2.0019601583480839 -0.30740686779608944 1.1536287665367129 1.0000000180025095e-35 -0.042903406545519822 -0.30740686779608944 0.6135152429342271 1.0000000180025095e-35 1.0000000180025095e-35 2.8822906017303471 -0.63176053762435902 1.3731526136398318 1.0000000180025095e-35 1.1096243858337405 0.66958093643188488 -0.76161217689514149 -0.30740686779608944 -0.30740686779608944 -0.74876970052719105 3.958905935287476 -0.30740686779608944 1.1096243858337405 1.9600396752357485 -0.15653926879167554 0.61858350038528453 -0.76161217689514149 -0.74876970052719105 1.7504370808601382 2.157954335212708 1.0000000180025095e-35 1.4946624636650088 2.505006074905396 1.0000000180025095e-35 -0.30740686779608944 -0.54043635725975026 -0.54043635725975026
decision_type=2 2 2 2 2 2 2 2 2 2 2 2 2 2 2 2 2 2 2 2 2 2 2 2 2 2 2 2 2 2 2 2 2 2 2 2 2 2 2 2 2 2 2 2 2 2 2 2 2 2 2 2 2 2 2 2 2 2 2 2 2 2 2
left_child=1 6 5 13 14 7 15 10 50 24 38 21 25 41 -4 19 46 39 27 31 59 37 47 -9 -7 -5 -11 -16 -12 44 61 33 -28 -1 -27 -17 52 -8 48 -14 -30 -3 -26 -24 -19 -20 -10 -15 -2 -47 -6 -32 -25 -29 -34 -37 -39 -36 -44 -18 -31 -13 -33
right_child=2 3 4 12 8 9 11 23 16 26 28 30 17 22 18 35 20 29 45 -21 -22 -23 43 36 42 34 32 53 40 60 51 62 54 -35 57 55 -38 56 -40 -41 -42 -43 58 -45 -46 49 -48 -49 -50 -51 -52 -53 -54 -55 -56 -57 -58 -59 -60 -61 -62 -63 -64
leaf_value=-0.031969618177413943 0.017638553094863892 0.0083715478420257547 0.039102680969238281 0.014865025949478148 0.061699670076370235 0.02465636909008026 0.0044857860803604096 0.033542971801757811 0.0513204302072525 0.040341166019439698 0.02249982268810272 0.0084917260408401453 0.017638553094863892 0.0083715478420257547 0.031969618177413943 0.062122932218526897 0.040341166019439698 0.017638553094863892 0.048712713861465452 0.01216395378112793 0.069334473752975453 0.011905039930343626 0.011799035167694089 0.039102680969238281 0.037809136104583745 0.02465636909008026 0.028662309050559998 0.046834644126892089 0.02465636909008026 0.02465636909008026 0.0083715478420257547 -0.0044808953762054448 0.028542130851745603 0.021783166551589964 0.020170583009719852 0.020655679821968077 0.057979719114303586 -0.005469646453857422 0.02249982268810272 0.02465636909008026 0.026664061117172243 0.011799035167694089 0.026664061117172243 0.017638553094863892 0.020170583009719852 0.035035608959197995 0.068883296871185301 0.011799035167694089 0.020170583009719852 0.039102680969238281 0.05371355481147766 0.011905039930343626 0.035035608959197995 0.033496807765960694 0.036455404257774347 0.0462133526802063 0 0.028542130851745603 0.037809136104583745 0.046834644126892089 0.028542130851745603 0.0041647786617279034 -0.011175202703475952
leaf_weight=35737392 152917 604630 36687 287564 16383 197023 549102 20344 24849 30790 98257 224545 19975 143990 79595 4501 112486 60518 18616 84269 401954 84894 102739 7465 20666 76617 76197 15533 112295 38639 692227 450031 83591 7143 108662 18197 18152 2856390 150838 72274 84729 382358 99907 205814 121346 46770 33058 289002 88922 117900 16284 89488 44615 151380 69381 3612 2146703 47184 27817 83144 77220 814942 5087767
leaf_count=35737392 152917 604630 36687 287564 16383 197023 549102 20344 24849 30790 98257 224545 19975 143990 79595 4501 112486 60518 18616 84269 401954 84894 102739 7465 20666 76617 76197 15533 112295 38639 692227 450031 83591 7143 108662 18197 18152 2856390 150838 72274 84729 382358 99907 205814 121346 46770 33058 289002 88922 117900 16284 89488 44615 151380 69381 3612 2146703 47184 27817 83144 77220 814942 5087767
internal_value=-6.57798e-05 -0.00090559 0.0169682 0.00439603 0.0227729 0.0121252 -0.00119194 0.00991233 0.0250381 0.0149711 0.00914402 -0.000212886 0.00699851 0.00302593 0.0194311 -0.00136835 0.0255395 0.00883566 0.0200462 -0.00137394 0.0260476 -0.000529797 0.00433579 0.0157479 0.0131282 0.00562082 0.0174197 0.0185016 0.0113461 0.00988924 0.000768035 -0.00138199 0.0180419 -0.00143024 0.0069798 0.00741904 0.0173905 -0.000579229 0.00748815 0.00543536 0.0124513 0.00204181 0.0148592 0.00561486 0.00867596 0.0221236 0.0202958 0.00342432 0.00657227 0.0226213 0.014979 0.00146091 0.0157258 0.0196876 0.0191546 0.00531462 -0.000681417 0.00807272 0.0155789 0.0240861 0.0117937 0.000246977 -0.00107055
internal_weight=5.40283e+07 5.14897e+07 2.53854e+06 2.63853e+06 1.15464e+06 1.38391e+06 4.88512e+07 778534 688158 605372 687958 7.45829e+06 909999 1.72853e+06 466481 4.13929e+07 655491 389972 429794 4.13666e+07 597584 5.63709e+06 741545 90576 345413 520027 259959 246508 295281 297723 1.8212e+06 4.12823e+07 229169 3.57445e+07 232463 26310 70232 5.5522e+06 392677 92249 197024 986988 148390 308553 181864 183286 57907 432992 241839 164670 32667 781715 52080 166913 152972 21809 5.00309e+06 155846 127724 195630 115859 1.03949e+06 5.5378e+06
internal_count=54028280 51489735 2538545 2638532 1154639 1383906 48851203 778534 688158 605372 687958 7458291 909999 1728533 466481 41392912 655491 389972 429794 41366602 597584 5637089 741545 90576 345413 520027 259959 246508 295281 297723 1821202 41282333 229169 35744535 232463 26310 70232 5552195 392677 92249 197024 986988 148390 308553 181864 183286 57907 432992 241839 164670 32667 781715 52080 166913 152972 21809 5003093 155846 127724 195630 115859 1039487 5537798
is_linear=0
shrinkage=0.03


Tree=2
num_leaves=64
num_cat=0
split_feature=4 5 5 4 5 4 5 4 0 10 10 10 4 5 10 0 13 0 4 10 5 5 0 4 5 13 5 4 9 5 4 9 0 4 4 6 5 5 13 9 9 13 5 9 5 5 4 0 0 5 13 5 6 13 4 13 5 4 5 10 5 9 0
split_gain=856192 85975 79292.9 12224.4 10453.5 9711.71 9683.59 3878.46 3855.75 3035.25 2787.23 2559.15 2546.66 2541.29 2475.77 2297.1 1940.54 1684.45 1552.3 1532.29 1243.31 960.575 937.403 866.081 862.637 832.267 814.342 807.911 803.695 764.39 678.377 632.86 627.563 620.477 586.793 569.274 563.643 534.172 527.884 497.295 488.561 446.332 413.678 397.021 394.564 389.916 387.274 373.796 363.251 420.149 353.884 326.7 309.565 303.355 298.165 296.274 287.236 283.54 282.985 282.649 260.187 256.652 252.064
threshold=1.079709053039551 0.4825624823570252 2.0887211561203007 0.073616923764348044 0.85659942030906688 2.9242111444473271 1.417654871940613 1.9181191325187685 0.6135152429342271 1.0000000180025095e-35 1.0000000180025095e-35 1.0000000180025095e-35 0.49282197654247289 -0.034488595090806477 1.0000000180025095e-35 1.0000000180025095e-35 -0.7673199176788329 1.8969395160675051 0.53474250435829174 1.0000000180025095e-35 3.7938897609710698 0.65857982635498058 0.87020006775856029 1.7923575639724734 1.1206254959106448 -0.76161217689514149 0.20753531157970431 2.0019601583480839 -0.30740686779608944 1.1536287665367129 0.74434497952461254 -0.30740686779608944 1.0000000180025095e-35 2.8822906017303471 1.3731526136398318 1.0000000180025095e-35 1.1096243858337405 0.66958093643188488 -0.76161217689514149 -0.30740686779608944 -0.30740686779608944 -0.74876970052719105 3.958905935287476 -0.30740686779608944 0.18553315103054049 1.1096243858337405 1.9600396752357485 -0.15653926879167554 0.87020006775856029 -0.24350924789905545 -0.76161217689514149 -0.1555005460977554 0.725927233695984 -0.74876970052719105 1.7504370808601382 -0.52045917510986317 1.4946624636650088 2.505006074905396 0.042519012466073043 1.0000000180025095e-35 -0.1224972903728485 -0.30740686779608944 0.35683041065931326
decision_type=2 2 2 2 2 2 2 2 2 2 2 2 2 2 2 2 2 2 2 2 2 2 2 2 2 2 2 2 2 2 2 2 2 2 2 2 2 2 2 2 2 2 2 2 2 2 2 2 2 2 2 2 2 2 2 2 2 2 2 2 2 2 2
left_child=1 3 6 13 14 15 7 10 47 23 34 24 26 17 37 -4 42 48 35 27 59 43 -9 -8 -6 -11 52 -17 -12 40 -14 -27 -26 50 45 -13 -30 -3 -25 -23 -20 -21 -10 -16 -15 -2 -43 -7 51 -50 -24 -1 -5 -29 -33 -28 -34 -40 -32 -18 62 -31 -54
right_child=2 4 5 12 11 8 9 22 16 25 28 18 30 44 21 19 20 -19 29 41 -22 39 33 38 32 31 55 53 36 61 58 54 56 -35 -36 -37 -38 -39 57 -41 -42 46 -44 -45 -46 -47 -48 -49 49 -51 -52 -53 60 -55 -56 -57 -58 -59 -60 -61 -62 -63 -64
leaf_value=-0.031010529632091523 0.017109396502017971 0.0081204014067649856 0.037929600540161132 -0.0051047278404235813 0.014419075170993799 0.059848679974079125 0.023916678017377853 0.032536682647705074 0.049780817301034931 0.039130931038856502 0.021824828007459638 0.017109396502017971 0.0080143966441154485 -0.0051047278404235813 0.0081204014067649856 0.031010529632091523 0.039130931038856502 0.060841816155998513 0.017109396502017971 0.047251332445621491 0.067254439540386193 0.011445064112663269 0.037929600540161132 0.036674862021446229 0.023916678017377853 0.027802439779043196 0.0082369742596149417 0.045429604803085326 0.023916678017377853 0.023916678017377853 0.022214709830760959 0.02768586692619324 0.019565465519428255 0.056240327540874477 0.021824828007459638 0.023916678017377853 0.025864139283657075 0.011445064112663269 0.025864139283657075 0.017109396502017971 0.019565465519428255 0.03398454069042206 0.066816797965049732 0.011445064112663269 0.00016408939361572505 0.019565465519428255 0.037929600540161132 0.052102148167133322 0.021129671555042265 -0.0049703009791374183 0.03398454069042206 -0.010839946622371675 0.0046202129416465726 0.03249190353298187 0.035361742130041118 0.004114461446285249 0.02768586692619324 0.036674862021446229 0.011780096570491791 0.045429604803085326 0.00016408939361572505 0.02768586692619324 0.020290761208534236
leaf_weight=34383002 152917 604630 36687 2509143 287564 16383 197023 20344 24849 30790 98257 19975 551612 3107971 143990 79595 112486 4405 60518 18616 401954 102739 7465 20666 76617 76197 337850 15533 112295 38639 20964 83591 108662 18152 150838 72274 84729 382358 99907 205814 121346 46770 33058 289002 530469 88922 117900 16284 13814 36369 44615 5212381 37720 151380 69381 1543911 47184 27817 121329 83144 418123 77220 22140
leaf_count=34383002 152917 604630 36687 2509143 287564 16383 197023 20344 24849 30790 98257 19975 551612 3107971 143990 79595 112486 4405 60518 18616 401954 102739 7465 20666 76617 76197 337850 15533 112295 38639 20964 83591 108662 18152 150838 72274 84729 382358 99907 205814 121346 46770 33058 289002 530469 88922 117900 16284 13814 36369 44615 5212381 37720 151380 69381 1543911 47184 27817 121329 83144 418123 77220 22140
internal_value=-4.0191e-05 -0.00087874 0.0169682 -0.00116364 0.00439603 0.0227729 0.0121252 0.00991233 0.0250381 0.0149711 0.00914402 0.00699851 0.000160206 -0.00133376 0.00302593 0.0194311 0.0255395 -0.00140339 0.00883566 0.0200462 0.0260476 0.00433579 0.0157479 0.0131282 0.00562082 0.0174197 -8.21178e-05 0.0185016 0.0113461 0.00988924 0.0018605 0.0180419 0.0069798 0.0173905 0.00748815 0.00543536 0.0124513 0.00204181 0.0148592 0.00561486 0.00867596 0.0221236 0.0202958 0.00342432 -0.000574961 0.00657227 0.0226213 0.014979 -0.00140545 0.00114532 0.0157258 -0.00140868 -0.000390057 0.0196876 0.0191546 0.000406708 0.00807272 0.0155789 0.00370735 0.0240861 0.000309667 0.0117937 0.00215954
internal_weight=5.40283e+07 5.14897e+07 2.53854e+06 4.88512e+07 2.63853e+06 1.15464e+06 1.38391e+06 778534 688158 605372 687958 909999 5.56279e+06 4.32884e+07 1.72853e+06 466481 655491 3.965e+07 389972 429794 597584 741545 90576 345413 520027 259959 4.86889e+06 246508 295281 297723 693905 229169 232463 70232 392677 92249 197024 986988 148390 308553 181864 183286 57907 432992 3.63844e+06 241839 164670 32667 3.96456e+07 50183 52080 3.95954e+07 2.98713e+06 166913 152972 1.88176e+06 155846 127724 142293 195630 477983 115859 59860
internal_count=54028280 51489735 2538545 48851203 2638532 1154639 1383906 778534 688158 605372 687958 909999 5562792 43288411 1728533 466481 655491 39649971 389972 429794 597584 741545 90576 345413 520027 259959 4868887 246508 295281 297723 693905 229169 232463 70232 392677 92249 197024 986988 148390 308553 181864 183286 57907 432992 3638440 241839 164670 32667 39645566 50183 52080 39595383 2987126 166913 152972 1881761 155846 127724 142293 195630 477983 115859 59860
is_linear=0
shrinkage=0.03


Tree=3
num_leaves=64
num_cat=0
split_feature=4 5 5 5 5 4 5 0 4 10 0 10 10 4 10 13 10 4 4 0 4 6 5 0 0 5 5 4 13 5 5 9 9 4 0 13 6 5 4 13 4 4 9 9 5 10 13 9 13 5 6 5 4 5 5 10 5 10 4 5 9 5 4
split_gain=845259 85501.1 76604.4 14234.7 10453.5 9535.17 8856.64 3979.74 3557.11 3084.79 2781.05 2561.72 2559.15 2513.54 2475.77 1868.95 1822.75 1552.3 1540.49 1243.98 1162.63 987.057 960.575 934.709 877.664 870.242 862.637 857.927 805.522 787.424 764.39 739.244 655.537 642.629 627.563 611.192 569.274 534.172 527.495 508.656 503.472 499.743 497.295 488.561 466.054 454.185 434.369 397.021 396.548 363.893 332.844 314.357 300.812 299.303 295.043 288.896 287.236 286.601 282.564 274.883 256.652 247.657 245.646
threshold=1.079709053039551 0.4825624823570252 2.0337157249450688 0.031517930328845985 0.85659942030906688 3.1757340431213383 1.3736505508422854 0.6135152429342271 1.8761985898017886 1.0000000180025095e-35 1.0000000180025095e-35 1.0000000180025095e-35 1.0000000180025095e-35 0.28321942687034612 1.0000000180025095e-35 -0.7673199176788329 1.0000000180025095e-35 0.53474250435829174 0.57666298747062694 2.9236788749694829 2.1696420907974248 -0.042903406545519822 0.65857982635498058 0.6135152429342271 0.6135152429342271 4.7729864120483407 1.1206254959106448 1.7923575639724734 -0.76161217689514149 0.15252986550331118 1.1536287665367129 -0.30740686779608944 -0.30740686779608944 0.61858350038528453 1.0000000180025095e-35 -0.74876970052719105 1.0000000180025095e-35 0.66958093643188488 2.0438807010650639 -0.76161217689514149 1.3731526136398318 3.2176547050476079 -0.30740686779608944 -0.30740686779608944 1.0546189546585085 1.0000000180025095e-35 -0.74876970052719105 -0.30740686779608944 -0.76161217689514149 0.37255162000656133 0.40083812177181249 1.0986232757568362 1.7504370808601382 2.5947711467742924 -0.1224972903728485 1.0000000180025095e-35 1.4946624636650088 1.0000000180025095e-35 2.505006074905396 4.3109405040740976 -0.30740686779608944 1.6046733856201174 1.7504370808601382
decision_type=2 2 2 2 2 2 2 2 2 2 2 2 2 2 2 2 2 2 2 2 2 2 2 2 2 2 2 2 2 2 2 2 2 2 2 2 2 2 2 2 2 2 2 2 2 2 2 2 2 2 2 2 2 2 2 2 2 2 2 2 2 2 2
left_child=1 3 6 13 14 10 8 -7 11 27 -4 40 26 19 37 59 20 36 29 21 -12 23 47 54 -10 57 -6 61 -11 -5 43 -13 62 -15 -28 -18 -14 -3 -37 -29 51 48 -24 -19 -33 -31 -22 -16 -26 -47 -23 -2 -34 -48 -1 -20 -36 -17 -41 -9 -32 -8 -30
right_child=2 4 5 18 12 7 9 15 24 28 16 31 17 33 22 25 35 30 55 -21 46 50 42 -25 41 -27 34 39 32 45 60 44 52 -35 56 38 -38 -39 -40 58 -42 -43 -44 -45 -46 49 53 -49 -50 -51 -52 -53 -54 -55 -56 -57 -58 -59 -60 -61 -62 -63 -64
leaf_value=-0.030080213743128779 0.016596114606957434 0.0078767893645620337 0.036791712523956299 -0.0049515860052108769 0.013986502915863985 0.056828558701443661 0.020975933963477609 0.04995448224428415 0.02993856812255859 0.036680214396142954 0.030080213743128779 0.021170083167235849 0.016596114606957434 0.0074012787158346154 0.0078767893645620337 0.039971320113787644 0.045836616535863878 0.016596114606957434 0.0077739647447919828 0.067064483328880806 0.044017878552160258 -0.011138580687918662 0.01110171218928337 0.025120303140721324 0.038068501235504149 0.069127139529833792 0.023199177676856517 0.03557461616080284 0.022962426625192163 4.0655550227164385e-05 0.023199177676856517 0.023199177676856517 0.026855290918407444 0.019565232496962546 0.018978501553845409 0.032965004469709402 0.023199177676856517 0.01110171218928337 0.036791712523956299 0.02508821510514736 0.021170083167235849 0.057782039604907028 0.016596114606957434 0.018978501553845409 0.02508821510514736 0.00410410327016115 0.028326645356969833 0.01110171218928337 0.032965004469709402 0.0079969675633764243 -0.0047743944411277736 0.016596114606957434 0.034300889866139883 0.033951063147211073 -0.010514748223700524 0.011307456833109854 0.026855290918407444 0.046002871024532314 0.03557461616080284 0.065735445996007905 0.026855290918407444 0.023199177676856517 0.030275675712525842
leaf_weight=33764334 149148 604630 42256 2683740 287564 27366 101252 23838 15909 31122 121274 91425 19975 153628 143990 145452 22982 60518 215558 2591 17564 5342865 102739 9487 9111 285761 76617 19920 44641 1950969 38639 96658 89970 36442 108662 63252 72274 382358 140767 94938 133650 12766 205814 121346 86535 1160361 67781 289002 52649 306720 854233 82440 65413 98488 2209097 161178 47184 108120 25176 28817 77220 109417 32687
leaf_count=33764334 149148 604630 42256 2683740 287564 27366 101252 23838 15909 31122 121274 91425 19975 153628 143990 145452 22982 60518 215558 2591 17564 5342865 102739 9487 9111 285761 76617 19920 44641 1950969 38639 96658 89970 36442 108662 63252 72274 382358 140767 94938 133650 12766 205814 121346 86535 1160361 67781 289002 52649 306720 854233 82440 65413 98488 2209097 161178 47184 108120 25176 28817 77220 109417 32687
internal_value=-3.10069e-05 -0.000864185 0.0168685 -0.0011483 0.00439603 0.0223999 0.0119586 0.0249819 0.00972526 0.0146125 0.0196157 0.00893813 0.00699851 -0.00134854 0.00302593 0.025499 0.0202039 0.00883566 0.000161373 -0.00136405 0.0186894 -0.00136532 0.00433579 -0.00142555 0.0152945 0.0260257 0.00562082 0.012769 0.0170631 4.64245e-05 0.00988924 0.0111272 0.0176693 0.00209362 0.0069798 0.0222395 0.00543536 0.00204181 0.022762 0.0145889 0.00729216 0.01666 0.00561486 0.00867596 0.0122268 0.000348404 0.0201935 0.00342432 0.0155431 0.000747197 -0.00101563 0.00644601 0.0187926 0.0206675 -0.00142803 0.00202313 0.00807272 0.0247464 0.0153253 0.0201042 0.0117937 0.0115593 0.0154122
internal_weight=5.40283e+07 5.14897e+07 2.53854e+06 4.88512e+07 2.63853e+06 1.19372e+06 1.34483e+06 619354 730291 614536 574364 639856 909999 4.23727e+07 1.72853e+06 591988 532108 389972 6.47853e+06 4.21826e+07 305107 4.218e+07 741545 3.59829e+07 90435 539333 520027 350703 263833 6.10179e+06 297723 274618 232711 190070 232463 227001 92249 986988 204019 140034 365238 74526 308553 181864 183193 3.41805e+06 183833 432992 61760 1.46708e+06 6.1971e+06 231588 155383 166269 3.59734e+07 376736 155846 253572 120114 52655 115859 210669 77328
internal_count=54028280 51489735 2538545 48851203 2638532 1193718 1344827 619354 730291 614536 574364 639856 909999 42372677 1728533 591988 532108 389972 6478526 42182607 305107 42180016 741545 35982918 90435 539333 520027 350703 263833 6101790 297723 274618 232711 190070 232463 227001 92249 986988 204019 140034 365238 74526 308553 181864 183193 3418050 183833 432992 61760 1467081 6197098 231588 155383 166269 35973431 376736 155846 253572 120114 52655 115859 210669 77328
is_linear=0
shrinkage=0.03


Tree=4
num_leaves=64
num_cat=0
split_feature=4 5 5 5 4 5 4 5 0 0 10 13 10 10 4 10 10 10 13 4 4 4 4 0 13 5 5 13 5 5 0 4 5 0 0 4 0 6 13 4 5 5 9 9 4 9 5 9 0 9 10 5 5 10 4 10 4 9 9 4 5 0 5
split_gain=828368 79491.6 78574.6 13689 11113 10158.7 8344.87 3790.97 3522.35 3199.19 2457.67 2434.36 2356.98 2334.25 2272.89 2173.86 1820.89 1627.66 1599.05 1415.51 1306.96 1305.6 1245.31 1242.18 1203.26 958.316 945.999 873.82 837.055 826.263 820.53 743.95 733.216 624.331 614.362 605.022 591.874 577.38 561.302 545.535 517.312 517.141 485.032 475.642 459.747 455.277 454.731 432.942 414.141 398.816 390.517 377.473 320.237 308.966 303.375 290.816 283.272 280.5 277.734 275.073 275.061 272.169 245.018
threshold=1.0377885699272158 1.9457070231437685 0.46056032180786138 0.031517930328845985 3.6368596553802495 0.83459725975990307 1.4989140629768374 1.1976330876350405 0.6135152429342271 0.87020006775856029 1.0000000180025095e-35 -0.76161217689514149 1.0000000180025095e-35 1.0000000180025095e-35 0.2412989288568497 1.0000000180025095e-35 1.0000000180025095e-35 1.0000000180025095e-35 -0.7673199176788329 0.53474250435829174 2.1696420907974248 2.1696420907974248 0.4089809656143189 2.4103091955184941 -0.74876970052719105 -0.11149619519710539 0.64757874608039867 -0.74876970052719105 1.1206254959106448 4.3109405040740976 -0.15653926879167554 0.57666298747062694 1.0986232757568362 0.87020006775856029 0.35683041065931326 2.0858012437820439 1.0000000180025095e-35 1.0000000180025095e-35 -0.54043635725975026 2.0438807010650639 0.63657766580581676 1.560669004917145 -0.30740686779608944 -0.30740686779608944 0.74434497952461254 -0.30740686779608944 1.4946624636650088 -0.30740686779608944 1.3835698366165163 -0.30740686779608944 1.0000000180025095e-35 2.880799531936646 4.3109405040740976 1.0000000180025095e-35 -0.13598559051752088 1.0000000180025095e-35 0.031696421094238765 -0.30740686779608944 -0.30740686779608944 3.4272570610046391 1.4946624636650088 -0.15653926879167554 1.4946624636650088
decision_type=2 2 2 2 2 2 2 2 2 2 2 2 2 2 2 2 2 2 2 2 2 2 2 2 2 2 2 2 2 2 2 2 2 2 2 2 2 2 2 2 2 2 2 2 2 2 2 2 2 2 2 2 2 2 2 2 2 2 2 2 2 2 2
left_child=2 6 3 14 8 12 7 17 30 61 28 -8 40 21 23 20 60 -2 52 37 -10 41 38 25 -17 33 49 -22 -7 -20 -3 -16 47 56 -15 46 -30 -12 -5 -26 -4 -13 -18 -19 55 -28 -36 -21 -23 -14 -40 -29 -11 -32 -35 -24 -1 -34 -52 -50 -9 -6 -38
right_child=1 4 5 22 9 10 11 16 15 18 19 13 26 34 31 24 42 43 29 32 27 48 44 -25 39 -27 45 51 36 -31 53 -33 57 54 35 -37 62 -39 50 -41 -42 -43 -44 -45 -46 -47 -48 -49 59 -51 58 -53 -54 -55 -56 -57 -58 -59 -60 -61 -62 -63 -64
leaf_value=-0.029177807330834915 0.016098231168748707 0.036155052725200081 0.0076404856836251754 0.0043450701496343088 0.060800958524567829 0.013566907828388068 0.035579807964258671 0.018480618115636685 0.028992725968983217 0.050035161055153869 0.016098231168748707 0.020534980672218775 0.0076404856836251754 0.02627949378691613 0.0043932518983630644 0.045381845946086595 0.022273553826436397 0.018133702653267358 0.043670321743771931 0.016098231168748707 0.042746180302427952 0.02627172301753249 0.0039827054048399415 0.057576073590214334 0.03197605433561812 -0.010199305776989511 0.010768660823604869 0.029191600100874994 0.022503202346550819 0.06581177013001055 0.030799821376550247 0.0185522661264543 0.022503202346550819 0.024564982248785453 0.02627172301753249 0.039679081149586841 0.018409146507230044 0.022503202346550819 -0.0046389490314388236 0.036964749859785463 0.010768660823604869 0.022503202346550819 0.02604963219085522 0.020279958633171915 0.011063666309659907 0.016098231168748707 0.026932587333211109 0.018409146507230044 0.030109270147292231 0.010768660823604869 -0.00075661722753846974 0.034147658778043689 0.064214523019875236 0.034667463012227222 0.0075453002951288246 0.0076400604805402271 -0.0036871126956105702 0.025103453834500553 0.00030168941536903301 0.051527586652462203 0.022503202346550819 0.053232334489762535 0.02604963219085522
leaf_weight=36569333 260430 35886 603581 819017 11505 305835 81507 114390 129050 16078 20674 128454 158205 25221 211769 25505 48586 65252 125917 55260 22458 15569 476708 4358 64812 5206237 98576 117343 73485 318399 36885 41849 40657 5976 69275 53403 96171 78615 2602798 179561 422124 90600 98032 130889 102008 197322 65529 110674 41552 316966 651752 104086 26653 36709 43902 357521 287532 81395 1304984 8813 80135 13007 41505
leaf_count=36569333 260430 35886 603581 819017 11505 305835 81507 114390 129050 16078 20674 128454 158205 25221 211769 25505 48586 65252 125917 55260 22458 15569 476708 4358 64812 5206237 98576 117343 73485 318399 36885 41849 40657 5976 69275 53403 96171 78615 2602798 179561 422124 90600 98032 130889 102008 197322 65529 110674 41552 316966 651752 104086 26653 36709 43902 357521 287532 81395 1304984 8813 80135 13007 41505
internal_value=-3.63752e-05 0.0163478 -0.000878587 -0.0011549 0.0217812 0.0041019 0.0113631 0.00937228 0.0194615 0.0251926 0.00669531 0.0141015 0.0027967 0.0148875 -0.0013491 0.0203086 0.0117648 0.00758461 0.0257249 0.00850235 0.0188245 0.0131108 0.00014815 -0.00136615 0.0223594 -0.00136781 0.00404989 0.0201164 0.00534168 0.0262579 0.0144873 0.0014824 0.00956731 -0.00142156 0.0172599 0.0178491 0.00679443 0.00541345 -2.76187e-05 0.0230066 0.00185462 0.0119968 0.0142894 0.00964861 0.00115792 0.00538149 0.0167785 0.00826906 0.0168119 0.00322068 -0.000157508 0.0206883 0.0201819 0.0163009 0.00193258 0.000925449 -0.0014261 0.0113323 0.000162702 0.0181339 0.00986198 0.0146174 0.00795481
internal_weight=5.40283e+07 2.64149e+06 5.13868e+07 4.86857e+07 1.26385e+06 2.70104e+06 1.37764e+06 797714 752295 511559 904271 579923 1.79677e+06 498416 4.2371e+07 642815 341143 456571 487047 387275 372937 284988 6.31479e+06 4.21173e+07 269878 4.2113e+07 771069 243887 516996 444316 109480 253618 287986 3.69067e+07 213428 188207 211161 99289 5.37855e+06 244373 1.0257e+06 219054 146618 196141 936237 295898 134804 165934 65934 475171 4.55953e+06 221429 42731 73594 49878 834229 3.68569e+07 122052 1.95674e+06 50365 194525 24512 137676
internal_count=54028280 2641491 51386789 48685744 1263854 2701045 1377637 797714 752295 511559 904271 579923 1796774 498416 42370956 642815 341143 456571 487047 387275 372937 284988 6314788 42117338 269878 42112980 771069 243887 516996 444316 109480 253618 287986 36906743 213428 188207 211161 99289 5378551 244373 1025705 219054 146618 196141 936237 295898 134804 165934 65934 475171 4559534 221429 42731 73594 49878 834229 36856865 122052 1956736 50365 194525 24512 137676
is_linear=0
shrinkage=0.03


Tree=5
num_leaves=64
num_cat=0
split_feature=4 5 4 5 5 5 5 0 10 10 13 10 10 4 5 4 4 6 0 4 10 13 5 13 9 4 5 9 5 5 13 0 0 0 6 5 5 10 13 0 5 0 9 9 5 4 5 9 10 4 4 9 9 4 0 5 0 5 10 0 4 4 0
split_gain=768274 78652.6 72773.4 14285.1 13381.8 10158.7 9141.15 3657.94 3534.4 3004.94 2497.61 2457.67 2356.98 2193.48 1724.42 1415.51 1259.12 1184.04 1589.58 1142.15 1075.18 1066.62 945.999 918.201 911.457 839.815 837.055 777.306 733.216 682.263 664.845 646.995 591.874 587.045 577.38 568.128 556.419 540.743 539.191 519.091 517.312 508.322 455.277 432.942 415.563 414.785 409.946 398.816 388.641 334.158 325.436 296.448 280.5 278.18 250.78 245.018 243.584 243.532 242.801 236.54 234.336 234.06 231.111
threshold=1.0377885699272158 0.46056032180786138 2.3792445659637456 1.3736505508422854 0.031517930328845985 0.83459725975990307 3.0128124952316289 0.87020006775856029 1.0000000180025095e-35 1.0000000180025095e-35 -0.76161217689514149 1.0000000180025095e-35 1.0000000180025095e-35 0.4089809656143189 5.0370121002197275 0.53474250435829174 0.57666298747062694 0.19430556893348697 0.87020006775856029 1.708516597747803 1.0000000180025095e-35 -0.74876970052719105 0.64757874608039867 -0.7673199176788329 -0.30740686779608944 1.3731526136398318 1.1206254959106448 -0.30740686779608944 1.0986232757568362 0.14152878522872928 -0.80584728717803944 1.3835698366165163 1.0000000180025095e-35 -0.15653926879167554 1.0000000180025095e-35 -0.11149619519710539 1.0546189546585085 1.0000000180025095e-35 -0.76161217689514149 0.35683041065931326 0.63657766580581676 1.0000000180025095e-35 -0.30740686779608944 -0.30740686779608944 1.8356961607933047 3.4272570610046391 1.0766211748123171 -0.30740686779608944 1.0000000180025095e-35 1.415073096752167 0.70242449641227733 -0.30740686779608944 -0.30740686779608944 0.1574579328298569 3.6937334537506108 1.4946624636650088 0.6135152429342271 0.35054942965507513 1.0000000180025095e-35 0.87020006775856029 3.2595751285552983 1.4569935798645022 0.87020006775856029
decision_type=2 2 2 2 2 2 2 2 2 2 2 2 2 2 2 2 2 2 2 2 2 2 2 2 2 2 2 2 2 2 2 2 2 2 2 2 2 2 2 2 2 2 2 2 2 2 2 2 2 2 2 2 2 2 2 2 2 2 2 2 2 2 2
left_child=1 4 3 9 13 12 10 33 19 25 -4 26 40 17 23 34 29 18 35 62 31 -10 47 -9 -11 46 -7 61 43 -6 -16 -12 -28 -8 -13 -1 49 60 -21 -22 -3 -29 -24 -17 -43 -33 -2 -14 -31 -26 -15 -50 -30 -19 -20 -34 -40 -53 -18 -27 -25 -23 -5
right_child=2 5 6 8 16 11 7 14 21 24 20 15 22 50 30 28 58 53 54 38 39 27 42 37 36 59 32 41 52 48 -32 45 55 -35 -36 -37 -38 -39 56 -41 -42 44 -44 -45 -46 -47 -48 -49 51 -51 -52 57 -54 -55 -56 -57 -58 -59 -60 -61 -62 -63 -64
leaf_value=-0.02830247311090987 0.015615284233686246 0.0074112711131164195 0.04083444801722317 0.022015481114483086 -0.0048120891075156226 0.013159900593536429 0.055118411168366931 0.048752775646081027 0.038217850804391121 0.019746828981692801 0.027952605845564242 0.015615284233686246 0.0074112711131164195 0.011301540915489773 0.064447287043939622 0.015615284233686246 0.0071272434336074929 -0.0089009683126644364 0.027582925130565053 0.037170765585036028 0.033314385851010445 0.022305568752441243 0.010445600998896725 0.032476692455849769 0.019671559874176757 0.01991893125205221 0.021828106276154297 0.028871650630934734 0.021828106276154297 8.082762776044916e-06 0.065879014392443244 0.029533975037962047 0.017856872112013145 0.04561524288066781 0.021828106276154297 -0.009893326603679824 0.023554079686267281 0.042411383417647511 0.025534882480605141 0.038416872793510588 0.010445600998896725 0.025742214898723505 0.015615284233686246 0.017856872112013145 0.031849867403512165 0.043538953247911044 0.015615284233686246 0.010445600998896725 5.2717253934020381e-05 0.029254482704822456 0.020396976161612089 0.0042362788346951728 0.024350350219465536 0.0001345619978910495 0.071982941344862245 0.025268143225129564 0.02536844491311372 0.0077480078540140586 0.010739031313700348 0.02169083014666992 0.037850562258310856 0.026693369706467265 0.022838379097907993
leaf_weight=36037978 176494 603581 51452 90826 2487080 305835 16499 24857 42905 111084 29846 20674 158205 67981 21233 55260 189242 2027904 7244 28019 6673 30856 98576 48966 89001 50183 73485 18308 40657 1996074 267820 106315 96171 24125 78615 3840377 102403 122761 27429 118005 422124 101209 197322 110674 103004 30826 103775 316966 500000 31498 22734 777780 81395 365212 1526 41505 194045 223401 141211 113819 117931 80091 159233
leaf_count=36037978 176494 603581 51452 90826 2487080 305835 16499 24857 42905 111084 29846 20674 158205 67981 21233 55260 189242 2027904 7244 28019 6673 30856 98576 48966 89001 50183 73485 18308 40657 1996074 267820 106315 96171 24125 78615 3840377 102403 122761 27429 118005 422124 101209 197322 110674 103004 30826 103775 316966 500000 31498 22734 777780 81395 365212 1526 41505 194045 223401 141211 113819 117931 80091 159233
internal_value=-6.9972e-05 -0.000881059 0.0157087 0.0118617 -0.00115751 0.0041019 0.0221541 0.0242608 0.0144896 0.00890409 0.0181987 0.00669531 0.0027967 -0.00134952 0.0248473 0.00850235 0.000130838 -0.00135952 -0.0013984 0.0128354 0.0192738 0.016685 0.00404989 0.02331 0.0110541 0.00728781 0.00534168 0.0172579 0.00956731 3.12926e-05 0.0265199 0.0176999 0.00679443 0.0155471 0.00541345 -0.00140121 0.0121604 0.0237849 0.0142715 0.0213817 0.00185462 0.0182806 0.00538149 0.00826906 0.0187099 0.018571 0.00629005 0.00322068 0.000301421 0.0107787 0.00331045 0.000666094 0.0113323 -0.000711376 0.0113723 0.00795481 0.0147676 0.00096402 0.00193356 0.00899292 0.0226732 0.0152066 0.0114026
internal_weight=5.40283e+07 5.13868e+07 2.64149e+06 1.65418e+06 4.86857e+07 2.70104e+06 987309 644192 875925 778257 343117 904271 1.79677e+06 4.2371e+07 603568 387275 6.31479e+06 4.22802e+07 3.98871e+07 499552 291665 376373 771069 314515 333986 444271 516996 333468 287986 5.98434e+06 289053 166987 211161 40624 99289 3.98784e+07 222902 289658 249493 124678 1.0257e+06 222521 295898 165934 204213 137141 280269 475171 3.49726e+06 120499 90715 1.50118e+06 122052 2.39312e+06 8770 137676 221474 1.00118e+06 330453 164002 166897 110947 250059
internal_count=54028280 51386789 2641491 1654182 48685744 2701045 987309 644192 875925 778257 343117 904271 1796774 42370956 603568 387275 6314788 42280241 39887125 499552 291665 376373 771069 314515 333986 444271 516996 333468 287986 5984335 289053 166987 211161 40624 99289 39878355 222902 289658 249493 124678 1025705 222521 295898 165934 204213 137141 280269 475171 3497255 120499 90715 1501181 122052 2393116 8770 137676 221474 1001181 330453 164002 166897 110947 250059
is_linear=0
shrinkage=0.03


Tree=6
num_leaves=64
num_cat=0
split_feature=4 4 5 5 5 5 5 0 13 10 10 4 10 10 4 4 4 10 0 4 13 6 4 5 13 0 9 5 0 10 13 5 4 0 5 0 5 13 5 4 5 5 9 0 4 5 4 13 0 0 4 0 13 9 8 13 13 5 4 0 13 10 5
split_gain=731931 76691.3 74603.5 12640.6 11987.5 9135.25 8933.84 3792.69 2626.3 2477.72 2319.55 2158.92 2130.09 1963.12 1718.3 1197.61 1169.82 1158.3 1121.12 1087.3 1012.95 998.395 869.261 866.892 759.164 711.986 702.23 689.653 663.523 653.723 637.327 585.416 560.446 550.191 537.508 553.225 515.382 491.113 488.125 479.402 468.071 437.32 423.021 422.243 414.342 387.636 387.5 338.347 328.719 325.804 325.436 323.564 313.585 259.018 249.428 593.508 337.142 247.969 239.977 232.653 229.294 226.897 225.372
threshold=1.0377885699272158 2.3792445659637456 0.44955924153327947 1.5166646838188174 0.031517930328845985 0.76859068870544445 3.0128124952316289 0.6135152429342271 -0.76161217689514149 1.0000000180025095e-35 1.0000000180025095e-35 0.4089809656143189 1.0000000180025095e-35 1.0000000180025095e-35 4.810633897781373 0.57666298747062694 -0.17790610343217847 1.0000000180025095e-35 1.8969395160675051 1.3731526136398318 -0.80584728717803944 0.19430556893348697 1.7504370808601382 0.99961355328559887 -0.7673199176788329 0.87020006775856029 -0.30740686779608944 1.1206254959106448 1.3835698366165163 1.0000000180025095e-35 -0.54043635725975026 0.95560917258262645 1.3731526136398318 0.6135152429342271 -0.22150707244873044 0.6135152429342271 0.59257334470748912 -0.74876970052719105 1.9677092432975771 0.031696421094238765 2.3967515230178837 0.93360701203346264 -0.30740686779608944 1.0000000180025095e-35 3.4272570610046391 0.21853639185428622 0.49282197654247289 -0.63176053762435902 -0.15653926879167554 1.0000000180025095e-35 0.70242449641227733 -0.15653926879167554 -0.74876970052719105 -0.30740686779608944 -1.5748484730720518 -0.96281075477600087 -0.37348434329032892 6.6651728153228769 0.1574579328298569 1.3835698366165163 -0.74876970052719105 1.0000000180025095e-35 0.60357442498207103
decision_type=2 2 2 2 2 2 2 2 2 2 2 2 2 2 2 2 2 2 2 2 2 2 2 2 2 2 2 2 2 2 2 2 2 2 2 2 2 2 2 2 2 2 2 2 2 2 2 2 2 2 2 2 2 2 2 2 2 2 2 2 2 2 2
left_child=2 3 4 10 11 13 8 51 -3 23 19 18 25 47 24 30 -11 28 21 27 -16 34 49 -7 -9 -5 -15 -2 -10 -26 -6 42 41 -19 35 54 -28 -34 -24 -20 60 -12 -18 -33 -30 -32 59 -4 -40 -14 -13 -8 -21 -50 55 -1 -57 -22 -23 -25 -27 -17 -49
right_child=1 6 5 12 15 9 7 14 17 16 32 50 22 26 20 61 31 33 39 52 57 58 38 46 29 40 36 -29 44 -31 45 43 37 -35 -36 -37 -38 -39 48 -41 -42 -43 -44 -45 -46 -47 -48 62 53 -51 -52 -53 -54 -55 -56 56 -58 -59 -60 -61 -62 -63 -64
leaf_value=-0.048247814391520559 0.015146825706675656 0.039609414576706477 0.01329304820788246 0.024589984790483802 0.0042709519923085602 0.010132232968929823 0.053464858833315913 0.047831060174118048 0.027114027670197317 0.015146825706675656 0.018200576961194467 0.010962494688025081 0.029572208083024271 0.010132232968929823 0.061237079721073583 0.0069134261305992652 0.012797466953252401 0.032180045733837398 0.055872084838481613 0.026917940153291704 0.045387805741980994 -0.0086339392632845038 0.02688386779572367 0.020636028048539177 0.03394678239221903 0.033112222975672012 0.010132232968929823 0.017386269436750354 0.028647955786823189 0.039288295786830775 -0.0046677264342901538 0.021173263087869668 0.031192013715287219 0.037342907790253461 -0.010373700859319462 0.020499714548178619 0.01329304820788246 0.023615960836676966 0.035013948759101417 0.023960138572705573 0.030707787443324641 0.019398564723169968 0.015146825706675656 0.021173263087869668 0.042232784650473712 0.0031724784700238652 0.01732116594865275 0.0034109745021233006 0.029585359818940466 0.027340158126197455 0.019785066876763725 0.046648063613199189 0.019268206347652115 0.032603024494328295 -0.027453398917582573 0.026299385811421331 3.5323883625921755e-05 0.06930642966623636 -2.753937906685433e-05 0.034063712591095405 0.02208515229659791 0.010416860374289337 0.0065987408806119528
leaf_weight=136906 194007 51452 211106 113665 922355 327819 16499 23785 29846 21362 90765 67981 19991 239379 24046 177624 69110 10281 3745 29111 128850 2025027 60738 69172 161331 20080 263126 119743 106315 119375 3228656 75498 21755 114397 10340558 8111 215863 140406 4872 9027 67744 146104 138721 171459 30826 1768927 233759 443548 31541 130804 22734 15450 187392 63383 29332922 15954 48929 154856 359062 4059 212081 132646 301644
leaf_count=136906 194007 51452 211106 113665 922355 327819 16499 23785 29846 21362 90765 67981 19991 239379 24046 177624 69110 10281 3745 29111 128850 2025027 60738 69172 161331 20080 263126 119743 106315 119375 3228656 75498 21755 114397 10340558 8111 215863 140406 4872 9027 67744 146104 138721 171459 30826 1768927 233759 443548 31541 130804 22734 15450 187392 63383 29332922 15954 48929 154856 359062 4059 212081 132646 301644
internal_value=-6.66638e-05 0.0153343 -0.000858334 0.0113851 -0.001132 0.00391627 0.0219509 0.0240336 0.0180407 0.00602555 0.00906889 -0.00131266 0.0143544 0.00251699 0.0245594 9.67024e-05 0.00766142 0.019143 -0.00132258 0.00776869 0.0261403 -0.00132527 0.0162287 0.00479854 0.0229616 0.0129434 0.00370208 0.00664021 0.0175094 0.0233977 1.47989e-06 0.00798369 0.0107967 0.021331 -0.00136092 -0.00142607 0.00436517 0.0121555 0.0177651 0.00756436 0.0137097 0.00986641 0.00681041 0.00897109 0.0183916 -0.000132245 0.00594415 0.00162674 0.0190556 0.0145931 0.00331045 0.0139568 0.00940405 0.0194457 -0.00142822 -0.000377095 0.00198627 0.0266414 -0.000728913 0.00403987 0.0130695 0.00191354 0.0013264
internal_weight=5.40283e+07 2.64149e+06 5.13868e+07 1.65418e+06 4.86012e+07 2.78562e+06 987309 644192 343117 1.11096e+06 929283 4.2371e+07 724899 1.67467e+06 612243 6.23021e+06 476150 291665 4.22802e+07 530253 307752 4.22675e+07 311329 634809 304491 413570 718368 313750 166987 280706 5.91994e+06 454788 399030 124678 3.98834e+07 2.95428e+07 478989 162161 160534 12772 299905 236869 207831 246957 137141 4.99758e+06 306990 956298 99796 150795 90715 31949 216503 94924 2.95347e+07 201789 64883 283706 2.38409e+06 73231 232161 310270 745192
internal_count=54028280 2641491 51386789 1654182 48601164 2785625 987309 644192 343117 1110959 929283 42370956 724899 1674666 612243 6230208 476150 291665 42280241 530253 307752 42267469 311329 634809 304491 413570 718368 313750 166987 280706 5919938 454788 399030 124678 39883380 29542822 478989 162161 160534 12772 299905 236869 207831 246957 137141 4997583 306990 956298 99796 150795 90715 31949 216503 94924 29534711 201789 64883 283706 2384089 73231 232161 310270 745192
is_linear=0
shrinkage=0.03


Tree=7
num_leaves=64
num_cat=0
split_feature=4 4 5 5 5 5 5 0 10 13 4 5 10 10 5 4 13 10 4 10 0 6 4 5 9 0 9 0 5 0 10 9 13 4 0 0 5 10 5 9 0 5 0 4 13 13 10 6 4 4 13 4 5 5 0 9 5 4 4 5 10 4 9
split_gain=680476 84977.9 71286 12154.5 11061.4 10636.7 7739.97 4029.62 2972.35 2948.66 2140.19 1993.99 1968.82 1939.59 1887.2 1665.63 1317.25 1251.33 1185.71 1183.06 1084.46 976.149 900.484 842.585 830.914 717.491 702.23 681.884 656.294 697.847 654.042 596.015 579.034 563.598 561.001 552.264 543.095 522.496 515.382 481.657 437.292 436.143 421.08 395.941 394.945 373.015 371.408 350.144 347.683 342.074 340.272 312.516 298.089 270.807 258.103 240.636 231.551 230.733 229.741 228.134 226.897 225.85 222.848
threshold=1.0377885699272158 2.2954035997390752 0.44955924153327947 0.031517930328845985 1.6596788167953493 3.0128124952316289 0.76859068870544445 0.87020006775856029 1.0000000180025095e-35 -0.76161217689514149 0.4089809656143189 1.1206254959106448 1.0000000180025095e-35 1.0000000180025095e-35 5.6530728340148935 0.53474250435829174 -0.7673199176788329 1.0000000180025095e-35 0.57666298747062694 1.0000000180025095e-35 1.6402546763420107 0.19430556893348697 1.415073096752167 2.1657286882400517 -0.30740686779608944 1.0000000180025095e-35 -0.30740686779608944 1.1268849670886996 0.99961355328559887 1.0000000180025095e-35 1.0000000180025095e-35 -0.30740686779608944 -0.80584728717803944 1.0000000180025095e-35 -0.15653926879167554 0.6135152429342271 -0.22150707244873044 1.0000000180025095e-35 0.59257334470748912 -0.30740686779608944 0.6135152429342271 0.3175461888313294 0.6135152429342271 2.9661315679550175 -0.76161217689514149 -0.76161217689514149 1.0000000180025095e-35 -0.17762496322393415 3.7207006216049199 1.708516597747803 -0.63176053762435902 0.70242449641227733 0.16353096812963488 1.3736505508422854 0.87020006775856029 -0.30740686779608944 2.4297549724578862 0.1574579328298569 1.6665961146354678 0.60357442498207103 1.0000000180025095e-35 4.8525543212890634 -0.30740686779608944
decision_type=2 2 2 2 2 2 2 2 2 2 2 2 2 2 2 2 2 2 2 2 2 2 2 2 2 2 2 2 2 2 2 2 2 2 2 2 2 2 2 2 2 2 2 2 2 2 2 2 2 2 2 2 2 2 2 2 2 2 2 2 2 2 2
left_child=2 4 3 10 11 9 12 34 23 -3 20 22 50 28 16 47 -9 -13 30 27 21 36 46 58 -17 -10 -14 -11 -8 -30 52 -27 -16 -22 -7 -21 40 48 -28 -19 -1 62 -25 56 -24 -33 -2 -15 -18 -47 -4 -12 -5 -41 -46 -37 -29 -23 -6 -52 -20 -34 -32
right_child=1 5 6 18 8 7 13 14 25 19 51 17 26 15 32 24 37 39 60 35 33 57 44 42 -26 31 38 43 29 -31 41 45 61 -35 -36 55 -38 -39 -40 53 -42 -43 -44 -45 54 49 -48 -49 -50 -51 59 -53 -54 -55 -56 -57 -58 -59 -60 -61 -62 -63 -64
leaf_value=-0.026629796950055098 0.014692420935475389 0.038249865872872539 0.012894256761645989 -0.0045803047076753197 0.021490673156072813 0.051266835958025912 0.0098282659798619321 0.046437204291557982 0.031072804172716486 0.025798563292577459 0.010633619847384328 0.018336312518148344 0.0098282659798619321 0.01183311460002617 0.061901416914402319 0.01591354346290326 0.030969308675186498 0.019844570371460122 0.0067060233466812889 0.030188253777484911 0.050859154142997576 -0.008565846672789694 0.027620840743749979 0.028477662758104729 0.01869161251192639 0.026569715881596734 0.0098282659798619321 0.026166503067503157 0.018430384396031181 0.016801530970193167 -0.0005781612545078563 0.038460672611205636 0.042708843586363135 0.019333120015126697 0.042840097707504007 0.032306225234931131 -0.01006248983353988 0.04065481189878753 0.012894256761645989 0.022138978470578954 0.019805455208182152 0.0071424622521965393 0.028062671264935904 0.036193858018613308 0.018743317124061076 0.02720916412269981 0.018372934252851143 0.018314821481854673 0.037354153176920271 0.029238167000804602 0.0033086452670595999 0.019191514870460818 8.3187517679521593e-05 0.023913919836472761 0.023192711623270541 0.037116506034796853 0.026570394173105187 -3.9815368162230415e-05 0.022236864665305063 0.0064007786541935971 0.010104354563060658 0.064466664342777591 0.0005770331991621358
leaf_weight=29534711 205630 56766 211106 1639993 85103 16970 327819 29846 24648 25970 67981 321644 239379 19553 17294 116540 87524 80502 177624 12202 4501 2021383 20824 25295 233544 69714 263126 60813 98196 208794 699646 14329 18686 15779 25086 42278 10340558 145500 215863 81040 7355 439451 101925 61861 34366 51320 154740 106513 109756 76025 443548 22734 1739290 80922 75648 86316 39920 355954 100807 301644 132646 200221 1401558
leaf_count=29534711 205630 56766 211106 1639993 85103 16970 327819 29846 24648 25970 67981 321644 239379 19553 17294 116540 87524 80502 177624 12202 4501 2021383 20824 25295 233544 69714 263126 60813 98196 208794 699646 14329 18686 15779 25086 42278 10340558 145500 215863 81040 7355 439451 101925 61861 34366 51320 154740 106513 109756 76025 443548 22734 1739290 80922 75648 86316 39920 355954 100807 301644 132646 200221 1401558
internal_value=-0.000100635 0.0147491 -0.000863972 -0.00113148 0.0104232 0.0214422 0.00380326 0.0237823 0.0138762 0.0174974 -0.0013134 0.00862633 0.00251527 0.00574479 0.0244027 0.00719216 0.0230729 0.0098432 0.00010575 0.0185858 -0.00132328 -0.00132661 0.00722887 0.01196 0.00825692 0.0164183 0.00370208 0.0170321 0.00465918 0.00565597 1.1002e-05 0.0169831 0.0265006 0.00561243 0.0148011 0.0206665 -0.00136181 0.0235992 0.00436517 0.0114706 -0.0014273 0.00037467 0.0138412 0.0177531 0.00936061 0.0181006 0.00645491 0.00423533 0.0225934 0.0186169 0.00162373 0.00328962 -0.000262415 0.0124133 0.0100777 0.0212453 0.016593 -0.000736049 0.0106727 0.00132253 0.00191354 0.0269181 0.000194914
internal_weight=5.40283e+07 2.64149e+06 5.13868e+07 4.86012e+07 1.60448e+06 1.03701e+06 2.78562e+06 650883 549166 386126 4.2371e+07 1.05532e+06 1.67467e+06 1.11096e+06 608827 476150 372626 564108 6.23021e+06 329360 4.22802e+07 4.226e+07 491208 313130 350084 236036 718368 188564 634809 306990 5.91994e+06 211388 236201 20280 42056 140796 3.98826e+07 342780 478989 242464 2.95421e+07 2.54066e+06 127220 162594 130838 141674 360370 126066 197280 127345 956298 90715 3.37928e+06 161962 110014 128594 100733 2.37734e+06 185910 745192 310270 218907 2.1012e+06
internal_count=54028280 2641491 51386789 48601164 1604482 1037009 2785625 650883 549166 386126 42370956 1055316 1674666 1110959 608827 476150 372626 564108 6230208 329360 42280241 42259961 491208 313130 350084 236036 718368 188564 634809 306990 5919938 211388 236201 20280 42056 140796 39882624 342780 478989 242464 29542066 2540655 127220 162594 130838 141674 360370 126066 197280 127345 956298 90715 3379283 161962 110014 128594 100733 2377337 185910 745192 310270 218907 2101204
is_linear=0
shrinkage=0.03


Tree=8
num_leaves=64
num_cat=0
split_feature=4 5 5 5 4 5 4 5 0 0 4 13 10 10 4 10 10 13 4 10 4 5 0 5 10 5 4 9 0 10 5 9 13 5 0 0 5 4 13 5 0 4 0 9 9 9 5 0 13 4 4 5 4 5 8 13 13 10 13 4 0 6 9
split_gain=642788 84201.1 70353.1 12761.3 9169.51 8563.43 8440.53 2965.22 2868.19 2860.75 2362.89 2325.73 2055.14 1930.43 1923.73 1676.23 1668.1 1568.19 1544.01 1260.24 1239.98 1097.47 1412.44 993.674 877.1 850.257 801.36 712.375 709.674 684.51 616.092 599.973 599.13 544.991 510.897 488.885 480.551 479.729 451.68 441.471 439.983 431.93 430.984 426.431 404.734 404.39 366.553 344.847 343.579 334.281 333.609 306.339 293.212 292.068 288.669 661.831 371.034 286.219 284.11 274.214 239.397 228.232 226.197
threshold=1.1635500192642214 0.46056032180786138 2.3307452201843266 0.031517930328845985 3.9303032159805302 0.76859068870544445 1.7504370808601382 1.4726603031158449 1.3835698366165163 0.87020006775856029 0.45090144872665411 -0.76161217689514149 1.0000000180025095e-35 1.0000000180025095e-35 0.53474250435829174 1.0000000180025095e-35 1.0000000180025095e-35 -0.80584728717803944 0.61858350038528453 1.0000000180025095e-35 2.2954035997390752 -0.21050599217414853 0.87020006775856029 1.0216156840324404 1.0000000180025095e-35 5.0370121002197275 2.5888469219207768 -0.30740686779608944 -0.15653926879167554 1.0000000180025095e-35 1.3076440691947939 -0.30740686779608944 -0.74876970052719105 0.3175461888313294 0.6135152429342271 3.4370485544204716 0.60357442498207103 0.1574579328298569 -0.7673199176788329 1.8356961607933047 1.3835698366165163 -0.052144591696560376 0.6135152429342271 -0.30740686779608944 -0.30740686779608944 -0.30740686779608944 1.1316265463829043 1.0000000180025095e-35 -0.46052768826484675 3.8883826732635502 0.74434497952461254 2.924803733825684 0.87010648846626293 0.16353096812963488 -1.5748484730720518 -0.96281075477600087 -0.37348434329032892 1.0000000180025095e-35 -0.60322177410125721 0.70242449641227733 1.0000000180025095e-35 1.3788375258445742 -0.30740686779608944
decision_type=2 2 2 2 2 2 2 2 2 2 2 2 2 2 2 2 2 2 2 2 2 2 2 2 2 2 2 2 2 2 2 2 2 2 2 2 2 2 2 2 2 2 2 2 2 2 2 2 2 2 2 2 2 2 2 2 2 2 2 2 2 2 2
left_child=1 3 6 10 9 13 7 24 47 28 21 -8 20 50 42 23 -9 -10 29 26 39 22 41 -16 -2 -19 -11 -15 -4 53 43 -26 -21 62 -14 -24 -29 48 -28 -13 -22 54 -7 -17 -18 -36 -33 -6 -23 -42 58 -34 -20 -5 55 -1 -57 -30 -3 -12 -25 -44 -31
right_child=2 5 4 18 8 14 11 16 17 19 59 12 34 27 15 30 44 25 52 32 40 37 35 60 31 -27 38 36 57 33 -32 46 51 -35 45 -37 -38 -39 -40 -41 49 -43 61 -45 -46 -47 -48 -49 -50 -51 -52 -53 -54 -55 -56 56 -58 -59 -60 -61 -62 -63 -64
leaf_value=-0.046001486051273292 0.015981211995310978 0.01016478740183506 0.03397562103935628 -0.0044428955664450598 0.056182168548657686 0.015364098818447617 0.033589608486637938 0.019930310958774667 0.055747734691764007 0.028488818853830852 0.011965131420875637 0.020663454068015182 0.025219799558216675 0.0095334180004660752 0.011392341971961912 0.013864609883278537 0.021430744773942117 0.039926386642926366 0.0069012632696614767 0.042687124384888628 0.024111549379491434 -0.0060458977228588038 0.018333321252593755 0.017877472864150246 0.017883645773419866 0.060281611556048949 0.040519892223030124 0.0095334180004660752 0.02941100554773371 -0.00055516978999309741 0.024222822680872249 0.020207451454908994 0.030640946574101297 0.0069167526499298911 0.027351321854053479 0.064427366086181451 0.012507429058796612 -0.000264048696388659 0.029686559393726501 0.021569758725345913 0.027407413126795423 -0.00020701909141683793 0.016198039178090779 0.016306012802094694 0.024776992422991376 0.031403557901373336 0.021468146391661266 0.043975339749434086 -0.0095885585750752362 0.048214185346656134 0.0097422473828856614 0.035636100547905489 0.01425164830741113 8.069189214913841e-05 -0.025830903041553447 0.026309298145580345 0.00083315807561879613 0.032617654758286867 0.003462869714821066 0.018615769424346989 0.01629748504108737 0.031421902887967271 0.00055972220318727171
leaf_weight=136906 303015 171434 24706 1644368 11787 235398 75993 167942 31787 103467 50983 97221 27724 233915 299521 118184 41888 136314 212518 17217 19486 1079177 27228 55280 75902 252264 12929 259548 33118 704455 91749 81130 78605 487052 54159 1734 208686 421600 149955 68242 65046 197978 51843 237235 83741 112072 71297 16054 10106146 8548 199660 95364 53611 1817069 30258714 17211 50545 33071 563426 26495 239190 8308 1411069
leaf_count=136906 303015 171434 24706 1644368 11787 235398 75993 167942 31787 103467 50983 97221 27724 233915 299521 118184 41888 136314 212518 17217 19486 1079177 27228 55280 75902 252264 12929 259548 33118 704455 91749 81130 78605 487052 54159 1734 208686 421600 149955 68242 65046 197978 51843 237235 83741 112072 71297 16054 10106146 8548 199660 95364 53611 1817069 30258714 17211 50545 33071 563426 26495 239190 8308 1411069
internal_value=-0.000116304 -0.0008141 0.0152285 -0.0011133 0.0212773 0.00408693 0.0107742 0.00887787 0.0244604 0.0186759 -0.00130099 0.0137341 0.0145496 0.00263195 0.00586842 0.00647478 0.0112977 0.025078 0.0001431 0.0196416 0.0127985 -0.00131058 -0.00140455 0.00543036 0.00754092 0.025602 0.0183077 0.00382058 0.0138147 4.49469e-05 0.00786212 0.00894506 0.0215 0.000412532 0.0168839 0.00521742 0.00449598 -0.00106209 0.0196192 0.0112402 0.0155685 -0.00141081 0.00373233 0.00729635 0.0139123 0.0175127 0.0100302 0.0151352 -0.00109954 0.0166299 0.00173887 0.0220283 0.00237962 -0.000231432 -0.00141989 -0.000296992 0.00212802 0.0154342 0.00144342 0.00393328 0.00666786 0.00599863 0.00020423
internal_weight=5.40283e+07 5.16782e+07 2.35004e+06 4.87049e+07 996638 2.97338e+06 1.35341e+06 824915 448206 548432 4.23747e+07 528491 452498 1.63667e+06 1.33671e+06 1.04116e+06 293571 420365 6.33014e+06 457537 258543 4.22972e+07 3.06903e+07 593991 531344 388578 266351 702149 90895 6.06401e+06 447168 228329 191186 2.60258e+06 193955 28962 468234 1.16069e+07 162884 165463 93080 3.06614e+07 295549 355419 125629 166231 152427 27841 1.11853e+07 73594 934520 173969 266129 3.46144e+06 3.04634e+07 204662 67756 66189 734860 77478 294470 60151 2.11552e+06
internal_count=54028280 51678236 2350044 48704859 996638 2973377 1353406 824915 448206 548432 42374717 528491 452498 1636669 1336708 1041159 293571 420365 6330142 457537 258543 42297239 30690316 593991 531344 388578 266351 702149 90895 6064013 447168 228329 191186 2602576 193955 28962 468234 11606923 162884 165463 93080 30661354 295549 355419 125629 166231 152427 27841 11185323 73594 934520 173969 266129 3461437 30463376 204662 67756 66189 734860 77478 294470 60151 2115524
is_linear=0
shrinkage=0.03


Tree=9
num_leaves=64
num_cat=0
split_feature=4 5 5 5 4 5 5 0 0 4 10 4 10 10 10 13 4 10 4 5 5 0 13 5 13 4 9 4 9 13 6 13 4 4 4 5 13 9 4 0 5 5 0 13 0 4 4 4 0 10 6 10 10 9 13 0 5 9 5 5 4 0 13
split_gain=615543 83042.7 64244 11893.6 9553.04 7707.58 7624.26 2903.74 2811.75 2663.23 2042.16 2040.12 1931.8 1914 1813.03 1656.95 1591.99 1461.73 1242.39 1185.73 981.999 1350.52 934.684 904.022 876.251 743.643 729.347 675.099 671.031 652.819 638.372 626.811 590.444 566.387 553.457 549.925 524.282 508.073 504.451 472.539 447.376 435.901 422.923 414.337 362.516 356.951 346.057 341.334 322.345 301.321 296.898 296.433 289.724 280.68 280.185 275.045 269.333 263.491 261.444 240.875 232.293 231.524 219.503
threshold=1.2054705023765566 0.44955924153327947 2.3967515230178837 0.031517930328845985 4.0141441822052011 1.6266755461692812 0.74658852815628063 0.6135152429342271 1.3835698366165163 1.9181191325187685 1.0000000180025095e-35 0.2412989288568497 1.0000000180025095e-35 1.0000000180025095e-35 1.0000000180025095e-35 -0.80584728717803944 0.61858350038528453 1.0000000180025095e-35 0.53474250435829174 1.2306364774703982 -0.22150707244873044 0.87020006775856029 -0.76161217689514149 5.8510925769805917 -0.76161217689514149 1.9181191325187685 -0.30740686779608944 3.0499726533889775 -0.30740686779608944 -0.74876970052719105 0.52921646833419811 -0.76161217689514149 0.82818600535392772 0.53474250435829174 2.463085532188416 1.2416375279426577 -0.7673199176788329 -0.30740686779608944 2.1696420907974248 -0.15653926879167554 1.4726603031158449 0.59257334470748912 2.6669940948486333 -0.46052768826484675 0.35683041065931326 0.74434497952461254 -0.26174711436033243 0.87010648846626293 1.0000000180025095e-35 1.0000000180025095e-35 0.94079402089118969 1.0000000180025095e-35 1.0000000180025095e-35 -0.30740686779608944 -0.60322177410125721 1.6402546763420107 0.3175461888313294 -0.30740686779608944 1.3736505508422854 3.2768385410308842 -0.094065092504024492 0.35683041065931326 -0.64174914360046376
decision_type=2 2 2 2 2 2 2 2 2 2 2 2 2 2 2 2 2 2 2 2 2 2 2 2 2 2 2 2 2 2 2 2 2 2 2 2 2 2 2 2 2 2 2 2 2 2 2 2 2 2 2 2 2 2 2 2 2 2 2 2 2 2 2
left_child=1 3 5 11 7 9 14 39 48 12 25 20 58 32 45 -10 30 36 46 57 21 44 -11 49 -12 -7 -14 52 -16 -19 51 -27 50 -13 -31 -28 -9 -26 -38 -4 -34 -30 -23 -22 60 54 -15 -18 -6 -17 -8 -5 -24 -21 -3 -29 -53 -20 -2 -40 -1 -39 -32
right_child=2 6 4 16 8 10 13 17 15 22 24 33 26 18 28 23 47 29 19 53 43 42 27 -25 37 31 35 55 41 34 62 -33 40 -35 -36 -37 38 61 59 -41 -42 -43 -44 -45 -46 -47 -48 -49 -50 -51 -52 56 -54 -55 -56 -57 -58 -59 -60 -61 -62 -63 -64
leaf_value=-0.025055975950306841 0.015978098835057342 0.009631862296899895 0.03338479322802388 -0.003944690086017868 0.05497671161750313 0.020906439615152737 0.011132188237839801 0.039899893277432166 0.054078920210455607 0.033869993672262816 0.033621980347226979 0.0039067497620338875 0.017728910380686736 0.01101719819747196 0.0082490369981207175 0.036036677519777571 0.0066942253715716335 0.041563609020494913 0.012873802952890624 0.019783809475312299 -0.0052709706316121973 0.018415336518137624 0.02300302603325971 0.061083503327775679 0.023919352653350105 0.032000937528145687 0.020957286608116962 0.033206563035043449 0.009247415460452095 0.030789757242736089 0.0078451840346976422 0.024345413918071157 0.012708933389167775 0.015656018322665166 0.033517367633408186 0.022188456012327332 0.0263661265613729 0.025642683578447248 0.02650469961181557 0.031377881494027628 0.02106133910403812 0.012132206187032717 0.05736813705050979 -0.0094729583812814249 0.0025202274082757724 0.009449979961399093 0.017304453872845606 0.014977287658865369 0.043403695801096293 0.041416962410429345 0.016768309795719027 -1.9117943583557562e-07 0.027920993058910173 0.022880891417179521 0.0032419855674415275 0.048778775607425731 0.0033720707028354812 0.015636039296596033 0.017344097196234969 0.030493460623665147 -0.0047232089682156444 0.027544350407732301 0.0021602940605228737
leaf_weight=29405304 247613 172403 23229 2567184 11312 153453 292210 23115 30804 25855 28247 203228 87596 19023 235683 102567 198961 18076 123926 43344 1193243 21283 53551 198289 69675 21014 95696 3434 268079 52020 274722 141125 344808 55076 125687 80286 42744 14307 113739 38144 62950 203636 2459 11170163 96315 191126 117971 53963 14768 75210 152950 1652606 39401 87416 578492 14755 274479 248660 102271 88323 228571 125351 1226389
leaf_count=29405304 247613 172403 23229 2567184 11312 153453 292210 23115 30804 25855 28247 203228 87596 19023 235683 102567 198961 18076 123926 43344 1193243 21283 53551 198289 69675 21014 95696 3434 268079 52020 274722 141125 344808 55076 125687 80286 42744 14307 113739 38144 62950 203636 2459 11170163 96315 191126 117971 53963 14768 75210 152950 1652606 39401 87416 578492 14755 274479 248660 102271 88323 228571 125351 1226389
internal_value=-0.000147234 -0.000816546 0.0151725 -0.00112202 0.0210706 0.010838 0.00390977 0.0183503 0.0243697 0.00885755 0.0135248 -0.00130219 0.00801301 0.00546275 0.00250381 0.0249818 9.98658e-05 0.019162 0.00670233 0.00739172 -0.00131849 -0.00141186 0.0126394 0.0255297 0.0156257 0.0119433 0.00995262 0.0138346 0.00365158 0.0211324 1.51081e-06 0.01336 0.00453213 0.00135582 0.0216848 0.011066 0.0177221 0.0162949 0.0181299 0.0122181 0.00535686 0.00430469 0.00574033 -0.00109376 -0.00141758 0.0016419 0.00416937 0.0024313 0.0148206 0.0239763 0.00377669 -0.000177396 0.0128003 0.00984957 0.00134728 0.0191202 0.000103816 0.00652913 0.00655184 0.0187563 -0.00142355 0.0173389 0.000537151
internal_weight=5.40283e+07 5.17666e+07 2.26166e+06 4.86239e+07 958027 1.30363e+06 3.14268e+06 525077 432950 750458 553172 4.23756e+07 613462 1.49326e+06 1.64942e+06 406870 6.2483e+06 463704 640340 503346 4.21173e+07 2.97539e+07 136996 376066 237580 315592 263578 111141 707398 195783 5.99538e+06 162139 852918 258304 177707 175982 267921 209333 244806 61373 407758 471715 23742 1.23634e+07 2.97302e+07 942021 136994 252924 26080 177777 445160 4.49427e+06 92952 130760 750895 18189 1.92708e+06 372586 349884 202062 2.96339e+07 139658 1.50111e+06
internal_count=54028280 51766623 2261657 48623946 958027 1303630 3142677 525077 432950 750458 553172 42375642 613462 1493258 1649419 406870 6248304 463704 640340 503346 42117338 29753932 136996 376066 237580 315592 263578 111141 707398 195783 5995380 162139 852918 258304 177707 175982 267921 209333 244806 61373 407758 471715 23742 12363406 29730190 942021 136994 252924 26080 177777 445160 4494269 92952 130760 750895 18189 1927085 372586 349884 202062 29633875 139658 1501111
is_linear=0
shrinkage=0.03


Tree=10
num_leaves=64
num_cat=0
split_feature=4 5 4 5 5 5 5 13 0 10 10 4 10 4 10 0 13 5 0 4 10 4 5 5 4 0 4 4 9 5 4 5 4 13 0 5 0 9 5 0 13 9 5 9 13 6 10 9 5 13 13 0 9 13 4 13 4 13 13 9 4 4 10
split_gain=582089 81890 59267.2 11938 10686 7591.02 7227.68 3288.8 2632.33 2602.26 2343.55 2022.98 1935.21 1560.51 1462.02 1392.57 1144.66 1102.02 1259.15 1079.56 1020.97 1018.67 998.428 988.179 835.227 806.68 800.441 736.28 712.898 710.423 660.092 655.158 569.114 471.341 462.562 451.888 427.776 407.267 401.961 393.668 391.868 381.88 378.942 376.546 362.932 343.02 342.255 339.544 333.625 319.115 317.703 317.348 315.287 312.918 295.8 261.976 261.07 246.112 240.491 231.847 228.438 227.918 221.455
threshold=1.2473909854888918 0.44955924153327947 2.7146086692810063 0.031517930328845985 1.6596788167953493 0.92260596156120311 4.1129212379455575 -0.76161217689514149 1.3835698366165163 1.0000000180025095e-35 1.0000000180025095e-35 0.2412989288568497 1.0000000180025095e-35 0.61858350038528453 1.0000000180025095e-35 0.87020006775856029 -0.80584728717803944 -0.21050599217414853 1.1268849670886996 0.57666298747062694 1.0000000180025095e-35 5.7328851222991952 0.66958093643188488 1.2306364774703982 1.9181191325187685 0.6135152429342271 1.6246756315231325 0.61858350038528453 -0.30740686779608944 2.3967515230178837 3.5530186891555791 0.24053857475519183 0.53474250435829174 -0.76161217689514149 0.35683041065931326 1.4286559820175173 1.0000000180025095e-35 -0.30740686779608944 2.8037918806076054 1.0000000180025095e-35 -0.74876970052719105 -0.30740686779608944 1.3406472802162173 -0.30740686779608944 -0.46052768826484675 0.24026027321815493 1.0000000180025095e-35 -0.30740686779608944 1.2526385188102724 -0.64174914360046376 -0.76161217689514149 3.6937334537506108 -0.30740686779608944 -0.76161217689514149 0.87010648846626293 -0.74876970052719105 1.6246756315231325 -0.38918066024780268 -0.63176053762435902 -0.30740686779608944 -0.094065092504024492 2.0019601583480839 1.0000000180025095e-35
decision_type=2 2 2 2 2 2 2 2 2 2 2 2 2 2 2 2 2 2 2 2 2 2 2 2 2 2 2 2 2 2 2 2 2 2 2 2 2 2 2 2 2 2 2 2 2 2 2 2 2 2 2 2 2 2 2 2 2 2 2 2 2 2 2
left_child=1 3 4 11 10 12 7 -4 39 24 26 17 22 31 35 -9 -10 18 34 45 30 46 58 37 -6 -11 42 52 -12 41 38 57 -13 -30 60 -7 -37 -21 -17 -8 -26 -27 -2 -29 -19 -16 -18 -25 56 -33 -43 -20 -14 -28 -15 -31 -35 -5 -3 -22 -1 -55 -51
right_child=2 5 6 13 9 14 8 15 16 25 28 32 27 54 19 20 21 44 51 23 59 -23 -24 47 40 29 53 43 33 55 -32 49 -34 48 -36 36 -38 -39 -40 -41 -42 50 -44 -45 -46 -47 -48 -49 -50 62 -52 -53 -54 61 -56 -57 -58 -59 -60 -61 -62 -63 -64
leaf_value=-0.024304296671797634 0.014841644314513101 0.0093610390986264037 0.03814416957470073 0.00041881235238995008 0.021619378949919641 0.012864254724311353 0.05332741026897804 0.02857899340329249 0.053810159781876317 0.027188188154410122 0.019005475204753604 0.0037895472691728679 0.0061732172141515315 0.0064933986104244853 0.013545988586997017 0.026388464860855325 0.031768320902727021 -0.0039044360238988103 0.021943695989870043 0.013232069125067398 0.032203491458419185 0.058891710965979512 0.0088103797396321872 0.019190295191052933 0.033688304403547108 0.022519750065312451 0.025524292928107619 0.0095901364496194467 0.028922094620557202 0.039624622834970882 0.035187150633740422 0.0078433465384637868 0.015186337772985213 0.018625789593405998 0.0024446205860274971 0.023308713870274871 0.020630910969796228 0.016523130335317483 0.02718091738323402 0.041342047707062179 0.023659795419613334 0.032425173761809555 0.016714578962376797 0.012737411120725772 -0.0090167130663845376 0.02107834956497933 0.037017267703068707 0.022207014231141131 0.021753619561053403 1.346231356897265e-05 0.024823248914097096 0.062967650840971265 0.0093858780351771306 0.017570902754288961 0.014527969029099407 0.030110568585454519 0.027083363267142866 -0.0041912679968711727 0.0038151966487215061 0.037406653400148371 -0.0053119456631968241 0.022272663615717576 0.0035759524853750178
leaf_weight=30239769 159625 163083 55075 1224334 171737 422015 12094 26137 26637 59409 96140 203228 179406 198961 25107 52630 90258 1125371 14006 65128 45109 202060 517163 47349 24019 49552 22619 139635 23787 7977 76522 284487 55970 59684 123621 47610 93529 130644 59179 16127 195731 9191 79004 279412 10321392 59460 65964 94976 85255 952000 94610 1526 359783 83936 56924 74288 24221 2818167 595052 92296 291653 40254 716392
leaf_count=30239769 159625 163083 55075 1224334 171737 422015 12094 26137 26637 59409 96140 203228 179406 198961 25107 52630 90258 1125371 14006 65128 45109 202060 517163 47349 24019 49552 22619 139635 23787 7977 76522 284487 55970 59684 123621 47610 93529 130644 59179 16127 195731 9191 79004 279412 10321392 59460 65964 94976 85255 952000 94610 1526 359783 83936 56924 74288 24221 2818167 595052 92296 291653 40254 716392
internal_value=-0.000169796 -0.000808476 0.0150121 -0.00111525 0.0111735 0.00382527 0.0213829 0.0185452 0.0241781 0.0138084 0.0084917 -0.00129579 0.00285746 0.000108591 0.006018 0.0196122 0.0248265 -0.00131205 -0.0014058 0.00735157 0.0201468 0.0252726 0.00209201 0.00810985 0.012205 0.015936 0.00696027 0.00387619 0.0105335 0.0167237 0.0187122 1.06679e-05 0.00134643 0.0115851 -0.00141012 0.00501712 0.00648659 0.00672697 0.0172429 0.0153343 0.01343 0.0155172 0.00588795 0.00481948 -0.00106085 0.00432 0.0234533 0.010012 0.0121412 0.000461872 0.0165516 0.00713379 0.00314308 0.00870326 0.00240292 0.0189729 0.0107982 -0.000207303 0.00139872 0.0221131 -0.00141754 0.00929435 0.000303515
internal_weight=5.40283e+07 5.18472e+07 2.18113e+06 4.86278e+07 1.36104e+06 3.21935e+06 820088 406948 413140 686514 674525 4.23765e+07 2.23353e+06 6.25126e+06 985818 351873 384919 4.21173e+07 3.06706e+07 422664 325736 358282 1.2753e+06 338097 391487 295027 385438 958236 289087 235618 188331 5.99538e+06 259198 192947 3.0655e+07 563154 141139 195772 111809 28221 219750 153353 238629 419047 1.14468e+07 84567 156222 142325 169160 1.95288e+06 103801 15532 539189 146809 255885 82265 83905 4.0425e+06 758135 137405 3.05314e+07 124190 1.66839e+06
internal_count=54028280 51847153 2181127 48627801 1361039 3219352 820088 406948 413140 686514 674525 42376536 2233534 6251265 985818 351873 384919 42117338 30670575 422664 325736 358282 1275298 338097 391487 295027 385438 958236 289087 235618 188331 5995380 259198 192947 30655043 563154 141139 195772 111809 28221 219750 153353 238629 419047 11446763 84567 156222 142325 169160 1952879 103801 15532 539189 146809 255885 82265 83905 4042501 758135 137405 30531422 124190 1668392
is_linear=0
shrinkage=0.03


Tree=11
num_leaves=64
num_cat=0
split_feature=4 5 5 5 0 5 5 4 10 10 5 0 0 10 4 4 6 0 10 13 10 4 10 13 13 10 4 9 4 0 5 0 5 5 4 5 13 4 0 9 13 4 13 4 0 0 5 10 4 5 4 5 9 6 9 4 13 9 13 9 0 13 9
split_gain=554534 76518.6 57596.9 11571.2 7909.78 7713.52 7357.17 3650.5 2467.67 2093.94 2074.38 2029.49 1836.15 1425.95 1362.43 1332.74 1294.25 1151.72 1164.23 1098.09 1025.8 921.983 911.65 854.388 851.038 810.772 808.058 751.771 694.86 656.414 638.075 561.21 561.183 556.959 533.478 525.791 501.597 480.769 457.462 454.573 430.325 418.5 408.075 397.037 367.322 362.447 360.022 351.999 343.938 343.417 332.121 328.934 323.757 316.21 297.01 284.13 267.094 266.909 261.639 239.333 236.112 228.579 222.438
threshold=1.2473909854888918 0.42755703628063207 2.6717786788940434 0.031517930328845985 2.4103091955184941 0.80159392952919017 1.7476874589920046 4.9363956451416025 1.0000000180025095e-35 1.0000000180025095e-35 1.2196353077888491 0.6135152429342271 1.3835698366165163 1.0000000180025095e-35 0.61858350038528453 1.8342780470848086 -0.17762496322393415 -0.15653926879167554 1.0000000180025095e-35 -0.80584728717803944 1.0000000180025095e-35 0.3670604825019837 1.0000000180025095e-35 -0.76161217689514149 -0.7673199176788329 1.0000000180025095e-35 2.421164989471436 -0.30740686779608944 2.1277216672897343 1.6402546763420107 1.3406472802162173 3.1803636550903325 0.13052770495414737 0.60357442498207103 3.8464621305465703 7.2262284755706796 -0.76161217689514149 0.66050401329994213 0.35683041065931326 -0.30740686779608944 -0.24220580607652661 2.7565290927886967 -0.76161217689514149 0.70242449641227733 1.3835698366165163 -0.15653926879167554 -0.21050599217414853 1.0000000180025095e-35 2.3373241424560551 1.2526385188102724 2.7984495162963872 1.560669004917145 -0.30740686779608944 0.61087495088577282 -0.30740686779608944 0.87010648846626293 -0.74876970052719105 -0.30740686779608944 -0.76161217689514149 -0.30740686779608944 1.6402546763420107 -0.76161217689514149 -0.30740686779608944
decision_type=2 2 2 2 2 2 2 2 2 2 2 2 2 2 2 2 2 2 2 2 2 2 2 2 2 2 2 2 2 2 2 2 2 2 2 2 2 2 2 2 2 2 2 2 2 2 2 2 2 2 2 2 2 2 2 2 2 2 2 2 2 2 2
left_child=1 3 6 12 11 13 8 24 15 29 22 45 16 33 32 30 38 53 51 -9 48 40 -7 -11 -6 50 27 -10 54 -8 -2 -14 -5 -3 42 -21 -29 59 46 -24 -18 -31 -17 -41 -28 -4 -1 -34 -13 -38 -26 -19 -30 -12 -25 -16 -22 -20 -43 -15 -44 -46 -49
right_child=2 5 4 14 7 10 9 19 26 23 17 20 31 37 55 34 21 18 57 35 56 -23 39 28 25 -27 44 36 52 41 -32 -33 47 -35 -36 -37 49 -39 -40 43 -42 58 60 -45 61 -47 -48 62 -50 -51 -52 -53 -54 -55 -56 -57 -58 -59 -60 -61 -62 -63 -64
leaf_value=-0.023575167771643705 0.015053506540570229 0.0055285831667162338 0.040959241174409668 -0.0040655299569650367 0.041064752143482944 0.011057157662047198 0.02089040813859178 0.053491025772416601 0.018334866711056677 0.032682798886735344 0.024331798630919041 0.026173985241026616 0.016877273877521873 0.0058714478448770287 0.0062985966521117492 0.02611058386182365 -0.0058996329953188041 0.01504136484645038 0.019839925378710078 0.039075118585045865 0.041466729528859173 0.00862953950312134 0.012456573254707276 0.021288728464537839 0.028471246545310368 0.034509082495401806 0.030125058005769978 0.028091366864066793 0.025591643092079546 0.021717331468035471 0.016477753817575245 0.04982845016684187 -6.2441664530241687e-05 0.0084707969173181286 0.046259797820190754 0.061490194012000128 0.020483521220156224 0.0117486859019694 0.016740612068573774 0.014283259018089328 -0.0090451311292854657 0.033457736208571974 0.018237401213108292 0.014965628905512205 0.039825180447912466 0.034964457491498346 -0.013834012514986628 0.00021260882549111181 0.028329680670204884 0.021013669707155808 0.029296661408409183 0.021948138006241895 0.029674803951819231 0.021923736289648946 0.024069741830239976 0.01427022257271739 0.031220192123724979 0.02152825424772991 0.029646001651113724 0.0086884166555832171 0.023319819671940131 0.041856019550738963 0.0040052758879856216
leaf_weight=28047634 193962 671092 26995 2287801 23243 527480 142752 20169 103054 29025 36362 24581 43645 199388 174220 19462 3021136 124401 48042 129996 10044 101652 131958 38291 30564 98553 8043 24741 33809 140895 135363 4740 2033686 491430 7016 131739 81973 275003 10764 93145 7835990 5751 37099 171085 3033 31911 3310975 509512 78727 99918 128488 70893 67766 59261 76825 50216 88355 95913 37623 399287 55656 15705 1020442
leaf_count=28047634 193962 671092 26995 2287801 23243 527480 142752 20169 103054 29025 36362 24581 43645 199388 174220 19462 3021136 124401 48042 129996 10044 101652 131958 38291 30564 98553 8043 24741 33809 140895 135363 4740 2033686 491430 7016 131739 81973 275003 10764 93145 7835990 5751 37099 171085 3033 31911 3310975 509512 78727 99918 128488 70893 67766 59261 76825 50216 88355 95913 37623 399287 55656 15705 1020442
internal_value=-0.000192776 -0.000816156 0.0146255 -0.00112122 0.0208858 0.00353793 0.0108291 0.0228868 0.00894288 0.0134145 0.00528866 0.0165649 -0.00129677 0.00236986 0.000103146 0.00748613 -0.00130344 0.00699712 0.00781678 0.0252985 0.0179956 -0.00102278 0.00448429 0.0155072 0.020466 0.0209621 0.0108849 0.0104526 0.0161546 0.0118422 0.00650219 0.00454402 1.51649e-05 0.00168162 0.0102038 0.0258182 0.0114964 0.00328563 -0.00140149 0.00557179 -0.0010494 0.0130252 0.00970205 0.00628992 0.0158843 0.0116661 -0.00140361 0.000250564 0.0159077 0.0120416 0.0196372 0.00630792 0.0179632 0.00408914 0.0145588 0.00239697 0.0201877 0.00986376 0.015602 0.00280866 0.0105307 0.0181862 0.000594318
internal_weight=5.40283e+07 5.18472e+07 2.18113e+06 4.84524e+07 823365 3.39474e+06 1.35776e+06 562752 785025 572737 1.35854e+06 260613 4.23765e+07 2.0362e+06 6.07588e+06 448558 4.23282e+07 434872 339249 281904 201707 1.09588e+07 923668 245716 280848 257605 336467 309686 216691 327021 329325 48385 5.85144e+06 1.16252e+06 119233 261735 206632 873678 3.13694e+07 396188 1.08571e+07 184269 112217 264230 26781 58906 3.13586e+07 3.56364e+06 103308 181891 159052 195294 101575 95623 115116 224436 98399 143955 43374 598675 92755 18738 1.52995e+06
internal_count=54028280 51847153 2181127 48452413 823365 3394740 1357762 562752 785025 572737 1358540 260613 42376536 2036200 6075877 448558 42328151 434872 339249 281904 201707 10958778 923668 245716 280848 257605 336467 309686 216691 327021 329325 48385 5851441 1162522 119233 261735 206632 873678 31369373 396188 10857126 184269 112217 264230 26781 58906 31358609 3563640 103308 181891 159052 195294 101575 95623 115116 224436 98399 143955 43374 598675 92755 18738 1529954
is_linear=0
shrinkage=0.03


Tree=12
num_leaves=64
num_cat=0
split_feature=4 5 5 5 0 5 5 4 10 0 4 10 5 10 4 13 4 5 0 13 0 10 10 13 10 10 4 5 4 9 4 5 0 5 13 9 5 4 9 13 0 13 13 5 4 4 10 0 4 5 6 0 13 4 4 9 4 4 5 4 0 5 4
split_gain=527181 73926.5 58614.8 11544.5 7820.31 7219.04 6833.63 3642.98 2031.87 1973.93 1953.94 1891.05 1691.97 1445.19 1338.58 1151.91 1124.07 1065.74 1115.02 981.675 967.081 933.017 932.608 889.885 875.895 823.053 793.402 783.127 774.209 656.807 582.312 563.858 535.421 532.722 525.249 502.051 490.735 474.167 455.414 428.106 397.148 384.636 371.031 364.39 342.926 335.495 331.056 325.707 320.96 310.856 297.509 285.464 281.047 266.061 265.103 239.616 236.957 231.979 228.679 223.884 218.675 215.195 215.057
threshold=1.2473909854888918 0.42755703628063207 2.7157832384109502 0.031517930328845985 2.4103091955184941 1.769689738750458 0.80159392952919017 5.1459977626800546 1.0000000180025095e-35 0.6135152429342271 0.1993784308433533 1.0000000180025095e-35 1.1756308674812319 1.0000000180025095e-35 0.61858350038528453 -0.80584728717803944 2.5888469219207768 -0.22150707244873044 1.3835698366165163 -0.7673199176788329 -0.15653926879167554 1.0000000180025095e-35 1.0000000180025095e-35 -0.76161217689514149 1.0000000180025095e-35 1.0000000180025095e-35 2.1277216672897343 1.3736505508422854 2.463085532188416 -0.30740686779608944 0.49282197654247289 0.60357442498207103 0.35683041065931326 0.13052770495414737 -0.76161217689514149 -0.30740686779608944 8.480351924896242 0.66050401329994213 -0.30740686779608944 -0.76161217689514149 1.8969395160675051 -0.46052768826484675 -0.76161217689514149 1.4946624636650088 0.70242449641227733 1.6246756315231325 1.0000000180025095e-35 -0.15653926879167554 1.7504370808601382 3.4088516235351567 0.66825607419013988 1.8969395160675051 -0.74876970052719105 0.82818600535392772 2.1696420907974248 -0.30740686779608944 -0.094065092504024492 2.0858012437820439 -0.1224972903728485 4.0560646057128915 4.7204725742340097 0.3175461888313294 3.3853366374969487
decision_type=2 2 2 2 2 2 2 2 2 2 2 2 2 2 2 2 2 2 2 2 2 2 2 2 2 2 2 2 2 2 2 2 2 2 2 2 2 2 2 2 2 2 2 2 2 2 2 2 2 2 2 2 2 2 2 2 2 2 2 2 2 2 2
left_child=1 3 5 10 9 11 13 19 28 47 17 16 24 31 33 -9 27 18 32 -6 50 54 49 -10 -8 43 35 45 -7 57 58 -3 56 -5 -30 -13 -17 55 -26 -28 -18 -19 -37 -22 -40 -2 -35 -4 -31 -21 -14 -41 -23 -16 -11 -15 -1 -25 -12 -42 -20 -48 -24
right_child=2 6 4 14 7 8 12 15 23 21 30 26 20 37 53 36 40 41 60 22 25 52 62 29 38 -27 39 -29 34 48 -32 -33 -34 46 -36 42 -38 -39 44 51 59 -43 -44 -45 -46 -47 61 -49 -50 -51 -52 -53 -54 -55 -56 -57 -58 -59 -60 -61 -62 -63 -64
leaf_value=-0.022867912738494391 0.013997946755699129 0.0053627256717147477 0.039977891211811882 -0.0039435640582560884 0.040069986242713886 0.020256903497173698 0.010603826682645402 0.052395508166398402 0.031969454306106565 0.025774799016717961 0.0083749730574667943 0.017225638382027175 0.021783106688287861 0.005695304409530721 0.0060072393358632922 0.03896429498669058 0.024454460742773347 -0.0051742382160581022 0.024420498971641117 0.026821244982914456 0.014468342608860327 0.040405804215675419 0.032137824228216171 0.020712741472310215 0.011826187573174116 0.019950998058249608 0.033765687730834257 0.017335284009763762 0.031103486108876754 0.023269100451153182 0.013646245559169275 0.0082166730097985845 0.0050157248354342271 -6.056841459433304e-05 0.025572046396054711 0.027067912595111768 0.062333848405873513 0.01139622532491032 0.013829743036757351 0.024551212570214226 0.028641978744520919 -0.0086469143039728854 0.019843701089932247 0.020576387918135045 0.014403088461909084 0.019484615043642708 0.0029730935802121782 0.034186674760397898 0.027474419451543722 0.029319558622175383 0.02063303786267711 0.038683458829684762 0.030437037915451003 0.01348404183263339 0.027479790250098737 0.0084277641559157221 -0.0045369135628758016 0.024820556776379038 -0.0011882182012750175 0.047273281904536439 0.063382729516015576 0.0059877683598609363 0.034247899668145496
leaf_weight=29405304 168902 671092 26314 2287801 23898 229731 494991 18924 29041 16485 73057 98417 39241 199388 161054 146424 9351 1175758 7783 59087 137799 9702 36502 35002 123913 164571 9580 182607 14376 35880 66404 491430 109648 2033686 83351 22755 99063 275003 89126 18211 14861 11091999 174788 85516 159018 77994 1134267 30389 108851 104957 64365 20445 84514 63382 82166 399287 224934 37197 220549 5075 1100 395687 66287
leaf_count=29405304 168902 671092 26314 2287801 23898 229731 494991 18924 29041 16485 73057 98417 39241 199388 161054 146424 9351 1175758 7783 59087 137799 9702 36502 35002 123913 164571 9580 182607 14376 35880 66404 491430 109648 2033686 83351 22755 99063 275003 89126 18211 14861 11091999 174788 85516 159018 77994 1134267 30389 108851 104957 64365 20445 84514 63382 82166 399287 224934 37197 220549 5075 1100 395687 66287
internal_value=-0.000212292 -0.000820103 0.0142359 -0.00111995 0.0206678 0.0104755 0.0034596 0.0226507 0.0130465 0.0162569 -0.0012953 0.0086395 0.00510745 0.00236016 0.000102998 0.025199 0.00737851 -0.00131415 -0.00141118 0.0203331 0.00651364 0.0177036 0.0208548 0.015107 0.00431034 0.0072014 0.0103203 0.00699074 0.0114988 0.0157672 0.000905433 0.00166729 -0.00141435 1.57904e-05 0.0137353 0.00973885 0.0257488 0.00328209 0.00541015 0.0138881 0.0130652 -0.00107887 0.010611 0.00601508 0.00615185 0.00588906 0.000245142 0.0113364 0.0169331 0.0194508 0.00393878 0.0152951 0.0198387 0.00237665 0.0156644 0.00280841 -0.0014221 0.01343 0.000331638 0.0154578 0.00921597 0.000578513 0.0230953
internal_weight=5.40283e+07 5.18472e+07 2.18113e+06 4.84524e+07 804712 1.37642e+06 3.39474e+06 555142 573429 249570 4.23765e+07 802986 1.35854e+06 2.0362e+06 6.07588e+06 264411 458790 4.20165e+07 2.97488e+07 290731 491492 192867 266833 245971 867048 387886 344196 429503 327458 216930 360010 1.16252e+06 2.97399e+07 5.85144e+06 97727 295960 245487 873678 372057 48236 29287 1.22678e+07 197543 223315 248144 246896 3.56364e+06 56703 144731 164044 103606 38656 94216 224436 98651 598675 2.96302e+07 72199 293606 19936 8883 1.52995e+06 102789
internal_count=54028280 51847153 2181127 48452413 804712 1376415 3394740 555142 573429 249570 42376536 802986 1358540 2036200 6075877 264411 458790 42016526 29748769 290731 491492 192867 266833 245971 867048 387886 344196 429503 327458 216930 360010 1162522 29739886 5851441 97727 295960 245487 873678 372057 48236 29287 12267757 197543 223315 248144 246896 3563640 56703 144731 164044 103606 38656 94216 224436 98651 598675 29630238 72199 293606 19936 8883 1529954 102789
is_linear=0
shrinkage=0.03


Tree=13
num_leaves=64
num_cat=0
split_feature=4 5 4 5 4 5 5 0 13 10 10 4 13 10 10 10 4 5 4 0 5 5 4 4 0 0 5 4 0 13 4 5 10 5 5 13 9 0 9 5 0 0 4 13 4 5 5 9 4 9 0 13 9 4 13 0 13 0 0 13 10 0 4
split_gain=494259 68040 58210.1 10650.7 9046.63 7886.72 6337.5 2925.68 2551.01 1850.29 1841.04 1836.73 1743.85 1507.82 1501.8 1501.5 1278.51 1216.59 1184.44 1072.54 915.045 878.984 764.267 756.923 740.117 721.948 690.949 654.206 592.945 584.595 550.689 465.65 462.997 432.21 417.443 397.557 382.633 380.086 379.053 377.925 376.369 357.622 363.593 351.746 343.634 339.813 339.028 336.01 329.018 311.933 280.344 272.646 271.406 258.393 253.71 243.635 227.24 215.379 212.199 207.383 204.919 203.989 200.887
threshold=1.2473909854888918 0.41655594110488897 2.6726881265640263 0.031517930328845985 4.3495082855224618 1.9457070231437685 0.98861244320869457 1.8969395160675051 -0.74876970052719105 1.0000000180025095e-35 1.0000000180025095e-35 0.1993784308433533 -0.80584728717803944 1.0000000180025095e-35 1.0000000180025095e-35 1.0000000180025095e-35 7.2420232295989999 -0.21050599217414853 0.61858350038528453 0.87020006775856029 1.538666903972626 0.60357442498207103 0.74434497952461254 -0.094065092504024492 1.1268849670886996 1.8969395160675051 1.3406472802162173 1.9600396752357485 0.6135152429342271 -0.63176053762435902 0.49282197654247289 3.2218329906463627 1.0000000180025095e-35 1.2416375279426577 2.8037918806076054 -0.74876970052719105 -0.30740686779608944 1.0000000180025095e-35 -0.30740686779608944 3.0128124952316289 2.4103091955184941 1.0000000180025095e-35 -0.26174711436033243 -0.46052768826484675 1.6246756315231325 2.4297549724578862 0.18553315103054049 -0.30740686779608944 1.7504370808601382 -0.30740686779608944 1.3835698366165163 -0.64174914360046376 -0.30740686779608944 0.87010648846626293 -0.76161217689514149 0.35683041065931326 -0.76161217689514149 0.35683041065931326 1.8969395160675051 -0.64174914360046376 1.0000000180025095e-35 -0.15653926879167554 0.66050401329994213
decision_type=2 2 2 2 2 2 2 2 2 2 2 2 2 2 2 2 2 2 2 2 2 2 2 2 2 2 2 2 2 2 2 2 2 2 2 2 2 2 2 2 2 2 2 2 2 2 2 2 2 2 2 2 2 2 2 2 2 2 2 2 2 2 2
left_child=1 3 5 11 8 10 9 37 39 21 26 17 -9 25 33 27 32 19 29 41 48 59 47 -16 61 55 44 -7 -17 -5 -13 -27 -14 -8 -26 -30 -22 -6 -37 -4 -21 -1 -43 -19 -2 -29 60 -11 -12 -25 62 -23 -24 -51 -50 -10 -38 -47 -32 -3 -31 -15 -35
right_child=2 6 4 18 7 15 14 12 13 22 20 30 16 24 23 28 -18 43 -20 40 36 51 52 49 34 31 -28 45 35 46 58 -33 -34 50 -36 38 56 -39 -40 -41 -42 42 -44 -45 -46 57 -48 -49 54 53 -52 -53 -54 -55 -56 -57 -58 -59 -60 -61 -62 -63 -64
leaf_value=-0.022181875356339562 0.013524851386189632 0.008753468660514678 0.030913273909931815 0.0047323954454833372 0.050695080983950952 0.021492742075845402 0.011757053275923824 0.04901925897025556 0.02458101876852125 0.0064470345163790306 0.017645674004168405 0.001339817793906679 0.031263657896580824 0.029399311110512593 0.016924768128385257 0.026002877253484286 0.057775472739463915 -0.0043362936796997537 0.0088293822289798596 0.015521331270536938 0.018778654825506547 0.013675426393913189 0.0097057153900482959 0.015424486944874428 0.029630353488577264 0.025137979317814144 0.017163690224108009 0.020256432007788469 0.033698388674346352 -0.0039635595469862412 0.01094995015706151 0.027073272954195454 0.037050544441831881 0.019230565273366303 0.030660915860644764 0.023005207554932936 0.028978321100296731 0.038195705810708101 0.025931055614634498 0.03837800960669583 0.046733418193279259 0.016087921961453529 -0.0070557373638469494 -0.0083098152554142539 0.019478837791676033 0.027036388932004024 0.00031840943251195238 0.0091702579295360256 0.026975898890272836 0.019136571901037163 0.020470990189631326 0.0067036554843055082 0.012545547829786771 0.018110218016647646 0.023086470343492128 0.023823515044569733 0.021140747196678238 0.024601031107553982 0.030444520766900185 0.002820528891738614 -8.3798488192556855e-05 0.027633734432269495 0.015412957772116478
leaf_weight=30157802 159625 140875 31024 665499 10815 103127 236620 27594 8177 274846 186991 293606 114285 3885 17982 38337 139915 1107886 209930 23113 44287 201029 105260 111706 47931 85213 270726 72796 14649 1676232 59946 84599 82775 56032 95861 47076 9805 21281 97117 23646 3021 14926 466550 10243228 73550 7433 2171743 550347 10201 93260 50584 595615 211347 130519 48536 43536 78924 78857 6458 582516 1261079 18553 127596
leaf_count=30157802 159625 140875 31024 665499 10815 103127 236620 27594 8177 274846 186991 293606 114285 3885 17982 38337 139915 1107886 209930 23113 44287 201029 105260 111706 47931 85213 270726 72796 14649 1676232 59946 84599 82775 56032 95861 47076 9805 21281 97117 23646 3021 14926 466550 10243228 73550 7433 2171743 550347 10201 93260 50584 595615 211347 130519 48536 43536 78924 78857 6458 582516 1261079 18553 127596
internal_value=-0.000241817 -0.000830343 0.0137479 -0.00112213 0.019946 0.00987266 0.00321743 0.0232358 0.0169965 0.00250563 0.00821351 -0.00128944 0.0240003 0.0178519 0.005516 0.0130604 0.024594 -0.00130772 6.25807e-05 -0.00140593 0.00979388 0.00182011 0.00341823 0.00699389 0.0200115 0.0162313 0.00702566 0.0115732 0.0150383 -1.78908e-05 0.000844268 0.0171764 0.0230369 0.0044065 0.0208022 0.0158465 0.0117981 0.0145525 0.0163249 0.0109297 0.00466897 -0.00141112 -0.000599955 -0.00104239 0.00582866 0.0127796 -0.000126832 0.00293747 0.00870897 0.0073153 0.0053201 0.00250756 0.00467128 0.00796161 0.0106676 0.0131278 0.0129349 0.0140531 0.00331146 0.00106305 -0.000336967 0.014944 0.00477535
internal_weight=5.40283e+07 5.18472e+07 2.18113e+06 4.8361e+07 839090 1.34204e+06 3.48613e+06 396665 442425 2.66184e+06 882645 4.23765e+07 364569 387755 824299 459392 336975 4.20165e+07 5.98448e+06 3.06654e+07 378744 1.52004e+06 1.1418e+06 353467 166230 221525 503901 262213 197179 5.77455e+06 360010 169812 197060 470832 143792 158842 133016 32096 144193 54670 26134 3.06393e+07 481476 1.13511e+07 233175 159086 5.10905e+06 825193 245728 335485 234212 796644 316607 223779 58737 51713 88729 86290 66404 723391 2.93731e+06 22438 183628
internal_count=54028280 51847153 2181127 48361019 839090 1342037 3486134 396665 442425 2661835 882645 42376536 364569 387755 824299 459392 336975 42016526 5984483 30665412 378744 1520035 1141800 353467 166230 221525 503901 262213 197179 5774553 360010 169812 197060 470832 143792 158842 133016 32096 144193 54670 26134 30639278 481476 11351114 233175 159086 5109054 825193 245728 335485 234212 796644 316607 223779 58737 51713 88729 86290 66404 723391 2937311 22438 183628
is_linear=0
shrinkage=0.03


Tree=14
num_leaves=64
num_cat=0
split_feature=4 5 4 5 5 5 4 13 0 4 10 10 10 0 10 5 10 4 13 0 5 0 0 5 4 4 5 5 4 5 4 13 5 5 9 6 4 5 13 9 5 13 0 0 13 5 13 13 5 8 13 13 5 13 9 6 9 13 0 9 13 4 5
split_gain=467396 66781.7 54555.3 10740.2 10102.5 6715.13 5778.16 2544.77 1884.75 1836.22 1784.87 1736.3 1558.97 1538.66 1445.54 1271.29 1177.46 1122.28 1111.04 1009.31 988.206 870.863 836.537 774.374 756.715 684.322 595.707 557.095 552.661 548.33 530.507 501.572 476.732 466.546 415.926 408.017 395.731 381.53 341.407 326.119 310.8 302.505 289.35 287.114 283.767 283.136 282.133 281.941 279.094 277.89 608.844 353.683 276.615 274.533 260.607 255.495 249.779 248.592 233.138 223.309 218.264 217.226 213.965
threshold=1.2893115282058718 0.40555486083030706 3.1338135004043584 1.9897114038467409 0.031517930328845985 0.95560917258262645 5.6909646987915048 -0.7673199176788329 2.1536242961883549 0.1993784308433533 1.0000000180025095e-35 1.0000000180025095e-35 1.0000000180025095e-35 1.1268849670886996 1.0000000180025095e-35 -0.21050599217414853 1.0000000180025095e-35 0.61858350038528453 -0.80584728717803944 1.1268849670886996 1.538666903972626 0.6135152429342271 1.3835698366165163 0.60357442498207103 0.57666298747062694 0.66050401329994213 2.5617680549621586 3.2768385410308842 0.49282197654247289 8.480351924896242 2.0438807010650639 -0.40915781259536738 1.1976330876350405 2.4297549724578862 -0.30740686779608944 -0.042903406545519822 1.7923575639724734 3.3538461923599248 -0.46052768826484675 -0.30740686779608944 1.3186451196670534 -0.76161217689514149 1.1268849670886996 4.7204725742340097 -0.64174914360046376 1.5166646838188174 -0.74876970052719105 -0.74876970052719105 0.10852554440498353 -1.5748484730720518 -0.96281075477600087 -0.54614412784576405 3.7938897609710698 -0.76161217689514149 -0.30740686779608944 0.21005047112703326 -0.30740686779608944 -0.76161217689514149 -0.15653926879167554 -0.30740686779608944 -0.63176053762435902 0.66050401329994213 0.7025841772556306
decision_type=2 2 2 2 2 2 2 2 2 2 2 2 2 2 2 2 2 2 2 2 2 2 2 2 2 2 2 2 2 2 2 2 2 2 2 2 2 2 2 2 2 2 2 2 2 2 2 2 2 2 2 2 2 2 2 2 2 2 2 2 2 2 2
left_child=1 4 3 10 9 12 7 52 -8 15 30 22 23 58 32 19 27 31 -10 35 36 -13 -5 60 55 44 46 -15 -11 -20 40 -6 -7 -24 -26 49 -12 -18 -17 -22 -2 -32 61 -21 -14 -36 -23 -28 -33 50 -1 -52 -4 -38 -49 -16 -48 -41 -9 -46 -3 -34 -27
right_child=2 5 6 11 17 14 8 13 18 28 20 21 25 16 24 38 37 -19 29 43 39 26 33 -25 34 62 47 -29 -30 -31 41 48 42 -35 45 -37 53 -39 -40 57 -42 -43 -44 -45 59 -47 56 54 -50 -51 51 -53 -54 -55 -56 -57 -58 -59 -60 -61 -62 -63 -64
leaf_value=-0.041081884615077627 0.014777916153927512 0.0084753914655738821 0.033675645476296971 0.021610427100822154 0.0032303065960322995 0.011190766829440686 0.049174228554432424 0.02914820709991588 0.050488096179175247 0.0012996232600894818 0.017478856434274822 0.026050071406754399 0.013919945067754026 0.026835211261463692 0.012540154047788035 -0.0042062048693087602 0.0321008197648684 0.0085645007621104677 0.038752826883590871 0.020110579553745258 0.018777639596583046 0.029268081160930617 0.020014800807722288 0.0076951291525732806 0.01447769200312011 0.010404624227849889 0.035560409232093568 0.027370713447551764 0.012869941647990836 0.058730568771513399 0.024516284729969619 -0.0040278022849728791 0.018554202452168732 0.024441126938314996 0.015596048224445611 -0.0063902811031567603 0.026696821833404518 0.03209988967215216 -0.008060520797751828 0.027694196564814425 0.016162208162811473 0.02061973972646924 0.017834634763147238 0.060079245084736742 0.0051461590909806353 0.023646177808047387 0.020734557079591796 0.025098130753159465 -8.1284533546781547e-05 -0.021516419095649372 0.037690037748680461 0.0082651605819324125 0.040238816699390556 0.023319611393551914 0.028370702108937527 0.01902851185935343 0.023512750408257021 0.020855476843287216 0.027939066360603164 0.0075372552591827331 0.0027359130249864539 0.014400713457351118 0.011720574891835124
leaf_weight=136906 176278 157886 27997 105243 1280690 261047 15425 7134 17318 293606 168213 40982 157195 60503 22617 1107886 47098 198465 116633 14240 48679 9545 89182 760337 111429 200256 9234 137296 67202 98545 16170 1501774 59762 131721 176920 829797 10384 97796 10243228 11187 225882 78166 89471 1100 193709 46379 31403 29279 2912369 29613680 7822 61867 18163 47002 59863 53806 64925 86772 21019 388038 620067 136839 216853
leaf_count=136906 176278 157886 27997 105243 1280690 261047 15425 7134 17318 293606 168213 40982 157195 60503 22617 1107886 47098 198465 116633 14240 48679 9545 89182 760337 111429 200256 9234 137296 67202 98545 16170 1501774 59762 131721 176920 829797 10384 97796 10243228 11187 225882 78166 89471 1100 193709 46379 31403 29279 2912369 29613680 7822 61867 18163 47002 59863 53806 64925 86772 21019 388038 620067 136839 216853
internal_value=-0.000267491 -0.000829317 0.0135906 0.0103089 -0.00112527 0.00308187 0.0206982 0.0185419 0.0243252 -0.00128712 0.00820783 0.0135035 0.00231475 0.0193687 0.00523877 -0.00130542 0.0199226 3.85355e-05 0.0249989 -0.00140582 0.0097783 0.0154107 0.0120695 0.00168917 0.00658287 0.00314717 0.0162115 0.0184175 0.000843906 0.0255872 0.0070304 -3.87494e-05 0.0042287 0.0131182 0.00719784 -0.00140967 0.00853209 0.0219772 -0.00103419 0.0116956 0.00655545 0.00905514 0.00507464 0.00628748 0.00259879 0.00794487 0.0146497 0.0178922 -0.000190401 -0.00142793 -0.000331482 0.00195119 0.0118993 0.0106833 0.0184091 0.00388935 0.0151372 0.0126929 0.0126267 0.00229319 0.00102374 0.004431 0.00411867
